{"learner":{"attributes":{"scikit_learn":"{\"_estimator_type\": \"regressor\"}"},"feature_names":["Item_Weight","Item_Fat_Content","Item_Visibility","Item_MRP","Outlet_Size","Outlet_Location_Type","Outlet_Type","Outlet_Age","Item_Identifier_Categories_DR","Item_Identifier_Categories_FD","Item_Identifier_Categories_NC"],"feature_types":["float","int","float","float","int","int","int","int","i","i","i"],"gradient_booster":{"model":{"gbtree_model_param":{"num_parallel_tree":"1","num_trees":"100"},"iteration_indptr":[0,1,2,3,4,5,6,7,8,9,10,11,12,13,14,15,16,17,18,19,20,21,22,23,24,25,26,27,28,29,30,31,32,33,34,35,36,37,38,39,40,41,42,43,44,45,46,47,48,49,50,51,52,53,54,55,56,57,58,59,60,61,62,63,64,65,66,67,68,69,70,71,72,73,74,75,76,77,78,79,80,81,82,83,84,85,86,87,88,89,90,91,92,93,94,95,96,97,98,99,100],"tree_info":[0,0,0,0,0,0,0,0,0,0,0,0,0,0,0,0,0,0,0,0,0,0,0,0,0,0,0,0,0,0,0,0,0,0,0,0,0,0,0,0,0,0,0,0,0,0,0,0,0,0,0,0,0,0,0,0,0,0,0,0,0,0,0,0,0,0,0,0,0,0,0,0,0,0,0,0,0,0,0,0,0,0,0,0,0,0,0,0,0,0,0,0,0,0,0,0,0,0,0,0],"trees":[{"base_weights":[-1.6041994E1,-7.1766455E2,7.279743E2,-1.2408583E3,-3.6656427E2,-7.9685295E1,1.0501588E3,-9.658797E1,-5.6787178E1,-9.057204E1,-9.208515E0,4.602342E1,1.0733148E2],"categories":[],"categories_nodes":[],"categories_segments":[],"categories_sizes":[],"default_left":[0,0,0,0,0,0,0,0,0,0,0,0,0],"id":0,"left_children":[1,3,5,7,9,-1,11,-1,-1,-1,-1,-1,-1],"loss_changes":[2.7061448E9,4.896393E8,1.8836652E9,7.558618E7,4.2079808E8,0E0,3.122903E8,0E0,0E0,0E0,0E0,0E0,0E0],"parents":[2147483647,0,0,1,1,2,2,3,3,4,4,6,6],"right_children":[2,4,6,8,10,-1,12,-1,-1,-1,-1,-1,-1],"split_conditions":[1.434154E2,8.49224E1,1E0,1E0,1E0,-7.9685295E1,3E0,-9.658797E1,-5.6787178E1,-9.057204E1,-9.208515E0,4.602342E1,1.0733148E2],"split_indices":[3,3,6,6,6,0,6,0,0,0,0,0,0],"split_type":[0,0,0,0,0,0,0,0,0,0,0,0,0],"sum_hessian":[5.182E3,2.667E3,2.515E3,1.07E3,1.597E3,3.06E2,2.209E3,1.39E2,9.31E2,1.78E2,1.419E3,1.977E3,2.32E2],"tree_param":{"num_deleted":"0","num_feature":"11","num_nodes":"13","size_leaf_vector":"1"}},{"base_weights":[-1.088236E0,-6.891043E2,7.281009E2,-1.1554952E3,-3.303607E2,5.017077E2,1.2271332E3,-6.658637E1,-4.4319923E1,-2.6144684E1,-7.290343E0,1.1071411E1,3.4118797E1,7.303609E1,4.399203E1],"categories":[],"categories_nodes":[],"categories_segments":[],"categories_sizes":[],"default_left":[0,0,0,0,0,0,0,0,0,0,0,0,0,0,0],"id":1,"left_children":[1,3,5,7,9,11,13,-1,-1,-1,-1,-1,-1,-1,-1],"loss_changes":[2.6248622E9,4.5002957E8,2.8634726E8,5.430515E7,5.404008E7,8.841405E7,6.2964736E7,0E0,0E0,0E0,0E0,0E0,0E0,0E0,0E0],"parents":[2147483647,0,0,1,1,2,2,3,3,4,4,5,5,6,6],"right_children":[2,4,6,8,10,12,14,-1,-1,-1,-1,-1,-1,-1,-1],"split_conditions":[1.434154E2,8.78172E1,2.053638E2,5.93536E1,1.111202E2,1.657868E2,2.6E1,-6.658637E1,-4.4319923E1,-2.6144684E1,-7.290343E0,1.1071411E1,3.4118797E1,7.303609E1,4.399203E1],"split_indices":[3,3,3,3,3,3,7,0,0,0,0,0,0,0,0],"split_type":[0,0,0,0,0,0,0,0,0,0,0,0,0,0,0],"sum_hessian":[5.23E3,2.691E3,2.539E3,1.169E3,1.522E3,1.748E3,7.91E2,7.04E2,4.65E2,7.44E2,7.78E2,6.86E2,1.062E3,4.71E2,3.2E2],"tree_param":{"num_deleted":"0","num_feature":"11","num_nodes":"15","size_leaf_vector":"1"}},{"base_weights":[6.5702505E0,-6.433803E2,6.9299506E2,-8.715379E1,-5.015565E2,-7.7974686E1,9.886203E2,-5.4884254E1,-9.913824E0,3.74678E1,7.469555E1],"categories":[],"categories_nodes":[],"categories_segments":[],"categories_sizes":[],"default_left":[0,0,0,0,0,0,0,0,0,0,0],"id":2,"left_children":[1,3,5,-1,7,-1,9,-1,-1,-1,-1],"loss_changes":[2.3373386E9,4.1882227E8,1.6982359E9,0E0,4.309758E8,0E0,2.712635E8,0E0,0E0,0E0,0E0],"parents":[2147483647,0,0,1,1,2,2,4,4,6,6],"right_children":[2,4,6,-1,8,-1,10,-1,-1,-1,-1],"split_conditions":[1.434154E2,1E0,1E0,-8.715379E1,7.70354E1,-7.7974686E1,2.053638E2,-5.4884254E1,-9.913824E0,3.74678E1,7.469555E1],"split_indices":[3,6,6,0,3,0,3,0,0,0,0],"split_type":[0,0,0,0,0,0,0,0,0,0,0],"sum_hessian":[5.237E3,2.69E3,2.547E3,3.06E2,2.384E3,2.95E2,2.252E3,8.03E2,1.581E3,1.53E3,7.22E2],"tree_param":{"num_deleted":"0","num_feature":"11","num_nodes":"11","size_leaf_vector":"1"}},{"base_weights":[2.0852484E1,-6.139682E2,6.794862E2,-1.1486871E3,-3.5043082E2,3.4744672E2,9.8251306E2,-6.368748E1,-4.9185658E1,-2.6043013E1,-6.51674E0,-1.6657215E0,2.457721E1,5.913274E1,3.5960888E1],"categories":[],"categories_nodes":[],"categories_segments":[],"categories_sizes":[],"default_left":[0,0,0,0,0,0,0,0,0,0,0,0,0,0,0],"id":3,"left_children":[1,3,5,7,9,11,13,-1,-1,-1,-1,-1,-1,-1,-1],"loss_changes":[2.202207E9,3.775406E8,2.5975334E8,1.7006336E7,6.737659E7,6.777678E7,7.034227E7,0E0,0E0,0E0,0E0,0E0,0E0,0E0,0E0],"parents":[2147483647,0,0,1,1,2,2,3,3,4,4,5,5,6,6],"right_children":[2,4,6,8,10,12,14,-1,-1,-1,-1,-1,-1,-1,-1],"split_conditions":[1.434154E2,7.50696E1,1.824292E2,5.13324E1,1.111202E2,1E0,2.6E1,-6.368748E1,-4.9185658E1,-2.6043013E1,-6.51674E0,-1.6657215E0,2.457721E1,5.913274E1,3.5960888E1],"split_indices":[3,3,3,3,3,5,7,0,0,0,0,0,0,0,0],"split_type":[0,0,0,0,0,0,0,0,0,0,0,0,0,0,0],"sum_hessian":[5.265E3,2.681E3,2.584E3,8.84E2,1.797E3,1.234E3,1.35E3,4.99E2,3.85E2,1.012E3,7.85E2,3.39E2,8.95E2,7.65E2,5.85E2],"tree_param":{"num_deleted":"0","num_feature":"11","num_nodes":"15","size_leaf_vector":"1"}},{"base_weights":[-1.4589088E1,-7.832967E1,1.921463E2,7.808494E1,1.0753259E3,6.14801E0,-9.364051E0,4.049471E1,5.8177204E1],"categories":[],"categories_nodes":[],"categories_segments":[],"categories_sizes":[],"default_left":[0,0,0,0,0,0,0,0,0],"id":4,"left_children":[1,-1,3,5,7,-1,-1,-1,-1],"loss_changes":[1.6786895E9,0E0,4.6501725E8,4.872825E7,1.1421248E7,0E0,0E0,0E0,0E0],"parents":[2147483647,0,0,2,2,3,3,4,4],"right_children":[2,-1,4,6,8,-1,-1,-1,-1],"split_conditions":[1E0,-7.832967E1,3E0,2E0,1E0,6.14801E0,-9.364051E0,4.049471E1,5.8177204E1],"split_indices":[6,0,6,6,9,0,0,0,0],"split_type":[0,0,0,0,0,0,0,0,0],"sum_hessian":[5.23E3,6.14E2,4.616E3,4.089E3,5.27E2,3.498E3,5.91E2,1.34E2,3.93E2],"tree_param":{"num_deleted":"0","num_feature":"11","num_nodes":"9","size_leaf_vector":"1"}},{"base_weights":[-1.5207354E1,-5.887975E2,6.10078E2,-7.732059E1,-4.6050375E2,-7.104245E1,8.946831E2,-4.3525326E1,-4.8664145E0,3.88663E1,9.2292336E1],"categories":[],"categories_nodes":[],"categories_segments":[],"categories_sizes":[],"default_left":[0,0,0,0,0,0,0,0,0,0,0],"id":5,"left_children":[1,3,5,-1,7,-1,9,-1,-1,-1,-1],"loss_changes":[1.8883324E9,3.3665024E8,1.4572841E9,0E0,3.607071E8,0E0,2.4525837E8,0E0,0E0,0E0,0E0],"parents":[2147483647,0,0,1,1,2,2,4,4,6,6],"right_children":[2,4,6,-1,8,-1,10,-1,-1,-1,-1],"split_conditions":[1.439812E2,1E0,1E0,-7.732059E1,9.0783E1,-7.104245E1,3E0,-4.3525326E1,-4.8664145E0,3.88663E1,9.2292336E1],"split_indices":[3,6,6,0,3,0,6,0,0,0,0],"split_type":[0,0,0,0,0,0,0,0,0,0,0],"sum_hessian":[5.263E3,2.745E3,2.518E3,3.23E2,2.422E3,3.09E2,2.209E3,1.137E3,1.285E3,1.968E3,2.41E2],"tree_param":{"num_deleted":"0","num_feature":"11","num_nodes":"11","size_leaf_vector":"1"}},{"base_weights":[3.0377306E1,-5.9368726E2,5.861175E2,-9.7890753E2,-3.118571E2,-6.8172516E1,8.415199E2,-5.2263622E1,-2.0673006E1,-7.287299E1,-8.645736E0,1.647107E1,5.4774483E1],"categories":[],"categories_nodes":[],"categories_segments":[],"categories_sizes":[],"default_left":[0,0,0,0,0,0,0,0,0,0,0,0,0],"id":6,"left_children":[1,3,5,7,9,-1,11,-1,-1,-1,-1,-1,-1],"loss_changes":[1.8148983E9,2.6731155E8,1.3794017E9,3.863232E7,2.2656914E8,0E0,3.180201E8,0E0,0E0,0E0,0E0,0E0,0E0],"parents":[2147483647,0,0,1,1,2,2,3,3,4,4,6,6],"right_children":[2,4,6,8,10,-1,12,-1,-1,-1,-1,-1,-1],"split_conditions":[1.288968E2,8.39908E1,1E0,3E0,1E0,-6.8172516E1,1.657868E2,-5.2263622E1,-2.0673006E1,-7.287299E1,-8.645736E0,1.647107E1,5.4774483E1],"split_indices":[3,3,6,6,6,0,3,0,0,0,0,0,0],"split_type":[0,0,0,0,0,0,0,0,0,0,0,0,0],"sum_hessian":[5.231E3,2.464E3,2.767E3,1.04E3,1.424E3,3.2E2,2.447E3,9.3E2,1.1E2,1.53E2,1.271E3,8.12E2,1.635E3],"tree_param":{"num_deleted":"0","num_feature":"11","num_nodes":"13","size_leaf_vector":"1"}},{"base_weights":[1.28658E1,-5.3479346E2,5.609376E2,-1.00970746E3,-3.0013736E2,-6.440274E1,7.9569104E2,-5.341456E1,-2.6925297E1,-6.974589E1,-8.761279E0,3.398585E1,8.640295E1],"categories":[],"categories_nodes":[],"categories_segments":[],"categories_sizes":[],"default_left":[0,0,0,0,0,0,0,0,0,0,0,0,0],"id":7,"left_children":[1,3,5,7,9,-1,11,-1,-1,-1,-1,-1,-1],"loss_changes":[1.575822E9,2.9234227E8,1.1399914E9,2.33856E7,2.4030054E8,0E0,2.5066125E8,0E0,0E0,0E0,0E0,0E0,0E0],"parents":[2147483647,0,0,1,1,2,2,3,3,4,4,6,6],"right_children":[2,4,6,8,10,-1,12,-1,-1,-1,-1,-1,-1],"split_conditions":[1.409154E2,7.50696E1,1E0,3E0,1E0,-6.440274E1,3E0,-5.341456E1,-2.6925297E1,-6.974589E1,-8.761279E0,3.398585E1,8.640295E1],"split_indices":[3,3,6,6,6,0,6,0,0,0,0,0,0],"split_type":[0,0,0,0,0,0,0,0,0,0,0,0,0],"sum_hessian":[5.248E3,2.625E3,2.623E3,8.67E2,1.758E3,2.95E2,2.328E3,7.7E2,9.7E1,1.79E2,1.579E3,2.072E3,2.56E2],"tree_param":{"num_deleted":"0","num_feature":"11","num_nodes":"13","size_leaf_vector":"1"}},{"base_weights":[6.184309E0,-6.4262184E1,1.7804395E2,8.417047E1,9.078582E2,6.4595656E0,-9.73191E0,4.7320007E1,2.527421E1],"categories":[],"categories_nodes":[],"categories_segments":[],"categories_sizes":[],"default_left":[0,0,0,0,0,0,0,0,0],"id":8,"left_children":[1,-1,3,5,7,-1,-1,-1,-1],"loss_changes":[1.1829701E9,0E0,3.2219552E8,5.2355276E7,7.834048E6,0E0,0E0,0E0,0E0],"parents":[2147483647,0,0,2,2,3,3,4,4],"right_children":[2,-1,4,6,8,-1,-1,-1,-1],"split_conditions":[1E0,-6.4262184E1,3E0,2E0,1E0,6.4595656E0,-9.73191E0,4.7320007E1,2.527421E1],"split_indices":[6,0,6,6,8,0,0,0,0],"split_type":[0,0,0,0,0,0,0,0,0],"sum_hessian":[5.328E3,6.25E2,4.703E3,4.168E3,5.35E2,3.589E3,5.79E2,4.87E2,4.8E1],"tree_param":{"num_deleted":"0","num_feature":"11","num_nodes":"9","size_leaf_vector":"1"}},{"base_weights":[-1.4173318E1,-5.7969775E2,4.4563953E2,-9.3909534E2,-3.5845438E2,1.5838747E2,7.5951697E2,-5.235461E1,-3.8654293E1,-2.1498947E1,1.7705781E-2,4.126752E0,2.7976027E1,2.7006231E1,4.6408573E1],"categories":[],"categories_nodes":[],"categories_segments":[],"categories_sizes":[],"default_left":[0,0,0,0,0,0,0,0,0,0,0,0,0,0,0],"id":9,"left_children":[1,3,5,7,9,11,13,-1,-1,-1,-1,-1,-1,-1,-1],"loss_changes":[1.3568631E9,1.8572691E8,2.5936582E8,1.5164736E7,3.7212416E7,4.57159E7,5.037568E7,0E0,0E0,0E0,0E0,0E0,0E0,0E0,0E0],"parents":[2147483647,0,0,1,1,2,2,3,3,4,4,5,5,6,6],"right_children":[2,4,6,8,10,12,14,-1,-1,-1,-1,-1,-1,-1,-1],"split_conditions":[1.23473E2,7.50696E1,1.80466E2,5.33298E1,3.9E1,3.9E1,2.083954E2,-5.235461E1,-3.8654293E1,-2.1498947E1,1.7705781E-2,4.126752E0,2.7976027E1,2.7006231E1,4.6408573E1],"split_indices":[3,3,3,3,7,7,3,0,0,0,0,0,0,0,0],"split_type":[0,0,0,0,0,0,0,0,0,0,0,0,0,0,0],"sum_hessian":[5.216E3,2.339E3,2.877E3,8.9E2,1.449E3,1.503E3,1.374E3,5.36E2,3.54E2,1.208E3,2.41E2,1.265E3,2.38E2,5.99E2,7.75E2],"tree_param":{"num_deleted":"0","num_feature":"11","num_nodes":"15","size_leaf_vector":"1"}},{"base_weights":[-8.89269E0,-5.576134E2,4.291473E2,-9.0255536E2,-3.527177E2,-5.939941E1,6.5198987E2,-4.807021E1,-2.230675E1,-2.3327284E1,2.9892683E1,1.7722887E1,4.947873E1],"categories":[],"categories_nodes":[],"categories_segments":[],"categories_sizes":[],"default_left":[0,0,0,0,0,0,0,0,0,0,0,0,0],"id":10,"left_children":[1,3,5,7,9,-1,11,-1,-1,-1,-1,-1,-1],"loss_changes":[1.2621377E9,1.6443002E8,1.0530449E9,2.2885376E7,1.586861E8,0E0,2.5748454E8,0E0,0E0,0E0,0E0,0E0,0E0],"parents":[2147483647,0,0,1,1,2,2,3,3,4,4,6,6],"right_children":[2,4,6,8,10,-1,12,-1,-1,-1,-1,-1,-1],"split_conditions":[1.23473E2,7.3738E1,1E0,3E0,3E0,-5.939941E1,1.819608E2,-4.807021E1,-2.230675E1,-2.3327284E1,2.9892683E1,1.7722887E1,4.947873E1],"split_indices":[3,3,6,6,6,0,3,0,0,0,0,0,0],"split_type":[0,0,0,0,0,0,0,0,0,0,0,0,0],"sum_hessian":[5.249E3,2.33E3,2.919E3,8.67E2,1.463E3,3.53E2,2.566E3,7.67E2,1E2,1.307E3,1.56E2,1.365E3,1.201E3],"tree_param":{"num_deleted":"0","num_feature":"11","num_nodes":"13","size_leaf_vector":"1"}},{"base_weights":[4.8777204E0,-6.0564044E2,3.7311063E2,-6.89631E2,8.062006E1,-5.676256E1,5.6332916E2,-6.166702E1,-3.0208588E1,-3.639087E1,1.7893543E1,9.296382E0,4.3506504E1],"categories":[],"categories_nodes":[],"categories_segments":[],"categories_sizes":[],"default_left":[0,0,0,0,0,0,0,0,0,0,0,0,0],"id":11,"left_children":[1,3,5,7,9,-1,11,-1,-1,-1,-1,-1,-1],"loss_changes":[1.189711E9,1.1481555E8,9.477572E8,8.168371E7,4.912297E7,0E0,3.3932608E8,0E0,0E0,0E0,0E0,0E0,0E0],"parents":[2147483647,0,0,1,1,2,2,3,3,4,4,6,6],"right_children":[2,4,6,8,10,-1,12,-1,-1,-1,-1,-1,-1],"split_conditions":[1.122518E2,3E0,1E0,1E0,5.43956E1,-5.676256E1,1.657868E2,-6.166702E1,-3.0208588E1,-3.639087E1,1.7893543E1,9.296382E0,4.3506504E1],"split_indices":[3,6,6,6,3,0,3,0,0,0,0,0,0],"split_type":[0,0,0,0,0,0,0,0,0,0,0,0,0],"sum_hessian":[5.29E3,1.99E3,3.3E3,1.773E3,2.17E2,3.69E2,2.931E3,2.39E2,1.534E3,5.5E1,1.62E2,1.315E3,1.616E3],"tree_param":{"num_deleted":"0","num_feature":"11","num_nodes":"13","size_leaf_vector":"1"}},{"base_weights":[5.424015E0,-3.7621863E2,5.5721313E2,-7.536346E2,-1.4158282E2,-5.2664246E1,7.7622565E2,-4.0646053E1,-1.4256807E1,-5.7792816E1,-8.7602663E-1,3.4025658E1,8.029217E1],"categories":[],"categories_nodes":[],"categories_segments":[],"categories_sizes":[],"default_left":[0,0,0,0,0,0,0,0,0,0,0,0,0],"id":12,"left_children":[1,3,5,7,9,-1,11,-1,-1,-1,-1,-1,-1],"loss_changes":[1.1125262E9,2.764515E8,7.6269114E8,3.3015552E7,2.4246013E8,0E0,1.499351E8,0E0,0E0,0E0,0E0,0E0,0E0],"parents":[2147483647,0,0,1,1,2,2,3,3,4,4,6,6],"right_children":[2,4,6,8,10,-1,12,-1,-1,-1,-1,-1,-1],"split_conditions":[1.548972E2,8.78172E1,1E0,3E0,1E0,-5.2664246E1,3E0,-4.0646053E1,-1.4256807E1,-5.7792816E1,-8.7602663E-1,3.4025658E1,8.029217E1],"split_indices":[3,3,6,6,6,0,6,0,0,0,0,0,0],"split_type":[0,0,0,0,0,0,0,0,0,0,0,0,0],"sum_hessian":[5.281E3,3.122E3,2.159E3,1.196E3,1.926E3,2.58E2,1.901E3,1.061E3,1.35E2,2.09E2,1.717E3,1.706E3,1.95E2],"tree_param":{"num_deleted":"0","num_feature":"11","num_nodes":"13","size_leaf_vector":"1"}},{"base_weights":[-1.5778145E1,-5.1050342E2,3.3048676E2,-7.776898E2,-3.189507E2,-5.1724926E1,5.136624E2,-4.135855E1,-2.0998007E1,-2.1083815E1,2.7927292E1,2.0087624E1,6.935346E1],"categories":[],"categories_nodes":[],"categories_segments":[],"categories_sizes":[],"default_left":[0,0,0,0,0,0,0,0,0,0,0,0,0],"id":13,"left_children":[1,3,5,7,9,-1,11,-1,-1,-1,-1,-1,-1],"loss_changes":[9.024374E8,1.1076198E8,7.7538074E8,1.5671872E7,1.1426432E8,0E0,2.6657414E8,0E0,0E0,0E0,0E0,0E0,0E0],"parents":[2147483647,0,0,1,1,2,2,3,3,4,4,6,6],"right_children":[2,4,6,8,10,-1,12,-1,-1,-1,-1,-1,-1],"split_conditions":[1.195756E2,7.50696E1,1E0,3E0,3E0,-5.1724926E1,3E0,-4.135855E1,-2.0998007E1,-2.1083815E1,2.7927292E1,2.0087624E1,6.935346E1],"split_indices":[3,3,6,6,6,0,6,0,0,0,0,0,0],"split_type":[0,0,0,0,0,0,0,0,0,0,0,0,0],"sum_hessian":[5.266E3,2.168E3,3.098E3,9.04E2,1.264E3,3.66E2,2.732E3,7.93E2,1.11E2,1.132E3,1.32E2,2.423E3,3.09E2],"tree_param":{"num_deleted":"0","num_feature":"11","num_nodes":"13","size_leaf_vector":"1"}},{"base_weights":[1.0080706E1,-5.1206203E1,1.4693571E2,6.706875E1,7.6577856E2,5.007894E0,-6.604329E0,3.4644527E1,4.692955E1],"categories":[],"categories_nodes":[],"categories_segments":[],"categories_sizes":[],"default_left":[0,0,0,0,0,0,0,0,0],"id":14,"left_children":[1,-1,3,5,7,-1,-1,-1,-1],"loss_changes":[7.460457E8,0E0,2.3002251E8,2.7189884E7,6.050688E6,0E0,0E0,0E0,0E0],"parents":[2147483647,0,0,2,2,3,3,4,4],"right_children":[2,-1,4,6,8,-1,-1,-1,-1],"split_conditions":[1E0,-5.1206203E1,3E0,2E0,7.899929E-2,5.007894E0,-6.604329E0,3.4644527E1,4.692955E1],"split_indices":[6,0,6,6,2,0,0,0,0],"split_type":[0,0,0,0,0,0,0,0,0],"sum_hessian":[5.269E3,6.15E2,4.654E3,4.123E3,5.31E2,3.536E3,5.87E2,3.77E2,1.54E2],"tree_param":{"num_deleted":"0","num_feature":"11","num_nodes":"9","size_leaf_vector":"1"}},{"base_weights":[-7.08914E0,-4.8862207E2,3.3510892E2,-7.4381635E2,-3.10063E2,-9.3276105E2,5.0588565E2,-4.290674E1,-3.0259995E1,-2.0067774E1,2.3650295E1,-4.9081192E1,-4.399456E1,9.319721E0,3.834143E1],"categories":[],"categories_nodes":[],"categories_segments":[],"categories_sizes":[],"default_left":[0,0,0,0,0,0,0,0,0,0,0,0,0,0,0],"id":15,"left_children":[1,3,5,7,9,11,13,-1,-1,-1,-1,-1,-1,-1,-1],"loss_changes":[8.6113734E8,9.86959E7,6.619486E8,1.3631488E7,9.162336E7,7.408E4,2.2436973E8,0E0,0E0,0E0,0E0,0E0,0E0,0E0,0E0],"parents":[2147483647,0,0,1,1,2,2,3,3,4,4,5,5,6,6],"right_children":[2,4,6,8,10,12,14,-1,-1,-1,-1,-1,-1,-1,-1],"split_conditions":[1.195756E2,7.62012E1,1E0,5.13324E1,3E0,1.79766E2,1.711422E2,-4.290674E1,-3.0259995E1,-2.0067774E1,2.3650295E1,-4.9081192E1,-4.399456E1,9.319721E0,3.834143E1],"split_indices":[3,3,6,3,6,3,3,0,0,0,0,0,0,0,0],"split_type":[0,0,0,0,0,0,0,0,0,0,0,0,0,0,0],"sum_hessian":[5.224E3,2.17E3,3.054E3,8.92E2,1.278E3,3.62E2,2.692E3,4.86E2,4.06E2,1.145E3,1.33E2,1.79E2,1.83E2,1.211E3,1.481E3],"tree_param":{"num_deleted":"0","num_feature":"11","num_nodes":"15","size_leaf_vector":"1"}},{"base_weights":[-4.2957065E-1,-2.978566E2,5.259568E2,-5.9586554E2,-5.587531E1,-4.1784927E1,7.109507E2,-3.821721E1,-2.2373312E1,-4.7689022E1,2.7653525E0,3.0939844E1,7.418667E1],"categories":[],"categories_nodes":[],"categories_segments":[],"categories_sizes":[],"default_left":[0,0,0,0,0,0,0,0,0,0,0,0,0],"id":16,"left_children":[1,3,5,7,9,-1,11,-1,-1,-1,-1,-1,-1],"loss_changes":[8.2132186E8,2.4168816E8,4.7768874E8,3.721107E7,1.8484032E8,0E0,1.1786822E8,0E0,0E0,0E0,0E0,0E0,0E0],"parents":[2147483647,0,0,1,1,2,2,3,3,4,4,6,6],"right_children":[2,4,6,8,10,-1,12,-1,-1,-1,-1,-1,-1],"split_conditions":[1.639184E2,9.86726E1,1E0,5.93536E1,1E0,-4.1784927E1,3E0,-3.821721E1,-2.2373312E1,-4.7689022E1,2.7653525E0,3.0939844E1,7.418667E1],"split_indices":[3,3,6,3,6,0,6,0,0,0,0,0,0],"split_type":[0,0,0,0,0,0,0,0,0,0,0,0,0],"sum_hessian":[5.244E3,3.351E3,1.893E3,1.501E3,1.85E3,2.26E2,1.667E3,7.01E2,8E2,2.03E2,1.647E3,1.491E3,1.76E2],"tree_param":{"num_deleted":"0","num_feature":"11","num_nodes":"13","size_leaf_vector":"1"}},{"base_weights":[-2.1223285E0,-3.8490024E2,3.4545358E2,-6.1561957E2,-1.853791E2,-4.120898E1,5.063227E2,-3.802483E1,-2.4712973E1,-1.4107375E1,3.267268E1,1.6715502E1,4.645544E1],"categories":[],"categories_nodes":[],"categories_segments":[],"categories_sizes":[],"default_left":[0,0,0,0,0,0,0,0,0,0,0,0,0],"id":17,"left_children":[1,3,5,7,9,-1,11,-1,-1,-1,-1,-1,-1],"loss_changes":[6.983499E8,1.1487725E8,5.1803955E8,1.9984416E7,1.0903666E8,0E0,1.7561018E8,0E0,0E0,0E0,0E0,0E0,0E0],"parents":[2147483647,0,0,1,1,2,2,3,3,4,4,6,6],"right_children":[2,4,6,8,10,-1,12,-1,-1,-1,-1,-1,-1],"split_conditions":[1.288968E2,8.78172E1,1E0,5.33298E1,3E0,-4.120898E1,2.053638E2,-3.802483E1,-2.4712973E1,-1.4107375E1,3.267268E1,1.6715502E1,4.645544E1],"split_indices":[3,3,6,3,6,0,3,0,0,0,0,0,0],"split_type":[0,0,0,0,0,0,0,0,0,0,0,0,0],"sum_hessian":[5.247E3,2.497E3,2.75E3,1.157E3,1.34E3,3.32E2,2.418E3,5.25E2,6.32E2,1.202E3,1.38E2,1.72E3,6.98E2],"tree_param":{"num_deleted":"0","num_feature":"11","num_nodes":"13","size_leaf_vector":"1"}},{"base_weights":[-4.62845E0,-2.9219156E2,4.1199216E2,-3.749938E2,3.9302866E2,-7.638374E2,5.778757E2,-4.6023083E1,-1.4797606E1,-1.423218E1,3.6206432E1,-3.9960907E1,-3.4804096E1,2.4611849E1,6.4603264E1],"categories":[],"categories_nodes":[],"categories_segments":[],"categories_sizes":[],"default_left":[0,0,0,0,0,0,0,0,0,0,0,0,0,0,0],"id":18,"left_children":[1,3,5,7,9,11,13,-1,-1,-1,-1,-1,-1,-1,-1],"loss_changes":[6.3017344E8,1.767153E8,4.1941043E8,1.1945715E8,7.559688E7,8.1328E4,1.1453254E8,0E0,0E0,0E0,0E0,0E0,0E0,0E0,0E0],"parents":[2147483647,0,0,1,1,2,2,3,3,4,4,5,5,6,6],"right_children":[2,4,6,8,10,12,14,-1,-1,-1,-1,-1,-1,-1,-1],"split_conditions":[1.55463E2,3E0,1E0,1E0,8.12618E1,1.981426E2,3E0,-4.6023083E1,-1.4797606E1,-1.423218E1,3.6206432E1,-3.9960907E1,-3.4804096E1,2.4611849E1,6.4603264E1],"split_indices":[3,6,6,6,3,3,6,0,0,0,0,0,0,0,0],"split_type":[0,0,0,0,0,0,0,0,0,0,0,0,0,0,0],"sum_hessian":[5.258E3,3.111E3,2.147E3,2.776E3,3.35E2,2.65E2,1.882E3,3.5E2,2.426E3,1.1E2,2.25E2,1.67E2,9.8E1,1.682E3,2E2],"tree_param":{"num_deleted":"0","num_feature":"11","num_nodes":"15","size_leaf_vector":"1"}},{"base_weights":[-5.3361416E-1,-4.4241672E2,2.5389215E2,-5.043939E2,5.931602E1,-7.615675E2,3.8818427E2,-4.5232864E1,-2.2293676E1,-2.551938E1,1.3421863E1,-4.1322006E1,-3.559579E1,1.1677247E1,4.2296772E1],"categories":[],"categories_nodes":[],"categories_segments":[],"categories_sizes":[],"default_left":[0,0,0,0,0,0,0,0,0,0,0,0,0,0,0],"id":19,"left_children":[1,3,5,7,9,11,13,-1,-1,-1,-1,-1,-1,-1,-1],"loss_changes":[5.879902E8,5.9454304E7,4.5290176E8,3.944016E7,2.527494E7,6.61392E5,2.0734797E8,0E0,0E0,0E0,0E0,0E0,0E0,0E0,0E0],"parents":[2147483647,0,0,1,1,2,2,3,3,4,4,5,5,6,6],"right_children":[2,4,6,8,10,12,14,-1,-1,-1,-1,-1,-1,-1,-1],"split_conditions":[1.111202E2,3E0,1E0,1E0,5.33298E1,1.618578E2,1.989768E2,-4.5232864E1,-2.2293676E1,-2.551938E1,1.3421863E1,-4.1322006E1,-3.559579E1,1.1677247E1,4.2296772E1],"split_indices":[3,6,6,6,3,3,3,0,0,0,0,0,0,0,0],"split_type":[0,0,0,0,0,0,0,0,0,0,0,0,0,0,0],"sum_hessian":[5.228E3,1.91E3,3.318E3,1.7E3,2.1E2,3.87E2,2.931E3,2.15E2,1.485E3,5.6E1,1.54E2,1.61E2,2.26E2,2.192E3,7.39E2],"tree_param":{"num_deleted":"0","num_feature":"11","num_nodes":"15","size_leaf_vector":"1"}},{"base_weights":[6.098181E0,-3.3558722E2,3.184372E2,-4.012461E2,1.9997687E2,-7.12556E2,4.5605508E2,-4.2520077E1,-1.6815931E1,-1.168853E0,4.4686153E1,-3.750821E1,-3.0975271E1,1.819085E1,6.048509E1],"categories":[],"categories_nodes":[],"categories_segments":[],"categories_sizes":[],"default_left":[0,0,0,0,0,0,0,0,0,0,0,0,0,0,0],"id":20,"left_children":[1,3,5,7,9,11,13,-1,-1,-1,-1,-1,-1,-1,-1],"loss_changes":[5.6135616E8,8.841357E7,3.9021968E8,6.4979744E7,4.26324E7,6.69088E5,1.6813373E8,0E0,0E0,0E0,0E0,0E0,0E0,0E0,0E0],"parents":[2147483647,0,0,1,1,2,2,3,3,4,4,5,5,6,6],"right_children":[2,4,6,8,10,12,14,-1,-1,-1,-1,-1,-1,-1,-1],"split_conditions":[1.288968E2,3E0,1E0,1E0,1.095228E2,1.97511E2,3E0,-4.2520077E1,-1.6815931E1,-1.168853E0,4.4686153E1,-3.750821E1,-3.0975271E1,1.819085E1,6.048509E1],"split_indices":[3,6,6,6,3,3,6,0,0,0,0,0,0,0,0],"split_type":[0,0,0,0,0,0,0,0,0,0,0,0,0,0,0],"sum_hessian":[5.258E3,2.511E3,2.747E3,2.237E3,2.74E2,3.23E2,2.424E3,2.81E2,1.956E3,2.08E2,6.6E1,2.25E2,9.8E1,2.161E3,2.63E2],"tree_param":{"num_deleted":"0","num_feature":"11","num_nodes":"15","size_leaf_vector":"1"}},{"base_weights":[1.3603565E1,-4.203755E2,2.4669348E2,-6.220617E2,-2.943744E2,-6.913081E2,3.7030627E2,-3.3933407E1,-2.4166178E1,-4.167177E1,-1.1443432E1,-3.6550694E1,-3.179749E1,1.4058405E1,5.39396E1],"categories":[],"categories_nodes":[],"categories_segments":[],"categories_sizes":[],"default_left":[0,0,0,0,0,0,0,0,0,0,0,0,0,0,0],"id":21,"left_children":[1,3,5,7,9,11,13,-1,-1,-1,-1,-1,-1,-1,-1],"loss_changes":[5.216648E8,4.561053E7,3.8926483E8,5.106592E6,3.9040424E7,3.9456E5,1.8694573E8,0E0,0E0,0E0,0E0,0E0,0E0,0E0,0E0],"parents":[2147483647,0,0,1,1,2,2,3,3,4,4,5,5,6,6],"right_children":[2,4,6,8,10,12,14,-1,-1,-1,-1,-1,-1,-1,-1],"split_conditions":[1.095228E2,5.93536E1,1E0,5.13324E1,1E0,1.79766E2,3E0,-3.3933407E1,-2.4166178E1,-4.167177E1,-1.1443432E1,-3.6550694E1,-3.179749E1,1.4058405E1,5.39396E1],"split_indices":[3,3,6,3,6,3,6,0,0,0,0,0,0,0,0],"split_type":[0,0,0,0,0,0,0,0,0,0,0,0,0,0,0],"sum_hessian":[5.155E3,1.801E3,3.354E3,6.91E2,1.11E3,3.9E2,2.964E3,4.88E2,2.03E2,1.19E2,9.91E2,2.2E2,1.7E2,2.634E3,3.3E2],"tree_param":{"num_deleted":"0","num_feature":"11","num_nodes":"15","size_leaf_vector":"1"}},{"base_weights":[3.5217997E-1,-2.2122083E2,4.2203543E2,-4.5769617E2,-3.329649E1,-3.0089945E1,5.588419E2,-2.5452116E1,-3.4789498E0,-5.9714866E0,3.6345074E1,2.4105556E1,6.151103E1],"categories":[],"categories_nodes":[],"categories_segments":[],"categories_sizes":[],"default_left":[0,0,0,0,0,0,0,0,0,0,0,0,0],"id":22,"left_children":[1,3,5,7,9,-1,11,-1,-1,-1,-1,-1,-1],"loss_changes":[4.844533E8,1.5103451E8,2.5049629E8,2.9956736E7,1.24168216E8,0E0,8.05952E7,0E0,0E0,0E0,0E0,0E0,0E0],"parents":[2147483647,0,0,1,1,2,2,3,3,4,4,6,6],"right_children":[2,4,6,8,10,-1,12,-1,-1,-1,-1,-1,-1],"split_conditions":[1.657868E2,9.86726E1,1E0,3E0,3E0,-3.0089945E1,3E0,-2.5452116E1,-3.4789498E0,-5.9714866E0,3.6345074E1,2.4105556E1,6.151103E1],"split_indices":[3,3,6,6,6,0,6,0,0,0,0,0,0],"split_type":[0,0,0,0,0,0,0,0,0,0,0,0,0],"sum_hessian":[5.183E3,3.398E3,1.785E3,1.504E3,1.894E3,2.1E2,1.575E3,1.328E3,1.76E2,1.702E3,1.92E2,1.415E3,1.6E2],"tree_param":{"num_deleted":"0","num_feature":"11","num_nodes":"13","size_leaf_vector":"1"}},{"base_weights":[-6.775988E0,-3.4308887E1,8.2535126E1,1.745418E1,5.813747E2,2.6118336E0,-9.098563E0,2.7939322E1,4.9974266E1],"categories":[],"categories_nodes":[],"categories_segments":[],"categories_sizes":[],"default_left":[0,0,0,0,0,0,0,0,0],"id":23,"left_children":[1,-1,3,5,7,-1,-1,-1,-1],"loss_changes":[3.164931E8,0E0,1.4965328E8,2.8303544E7,4.46592E6,0E0,0E0,0E0,0E0],"parents":[2147483647,0,0,2,2,3,3,4,4],"right_children":[2,-1,4,6,8,-1,-1,-1,-1],"split_conditions":[1E0,-3.4308887E1,3E0,2E0,1.5679778E-1,2.6118336E0,-9.098563E0,2.7939322E1,4.9974266E1],"split_indices":[6,0,6,6,2,0,0,0,0],"split_type":[0,0,0,0,0,0,0,0,0],"sum_hessian":[5.214E3,6.05E2,4.609E3,4.078E3,5.31E2,3.473E3,6.05E2,5.06E2,2.5E1],"tree_param":{"num_deleted":"0","num_feature":"11","num_nodes":"9","size_leaf_vector":"1"}},{"base_weights":[4.8752403E0,-3.6721625E2,2.2421666E2,-5.399465E2,-2.3003275E2,3.8182426E1,4.7422266E2,-3.0799276E1,-2.17777E1,-1.3122853E1,-2.8385546E0,-9.097867E-1,1.5724614E1,1.7978867E1,3.3303528E1],"categories":[],"categories_nodes":[],"categories_segments":[],"categories_sizes":[],"default_left":[0,0,0,0,0,0,0,0,0,0,0,0,0,0,0],"id":24,"left_children":[1,3,5,7,9,11,13,-1,-1,-1,-1,-1,-1,-1,-1],"loss_changes":[4.2692915E8,4.5845536E7,1.5304525E8,6.542432E6,6.069268E6,2.9416684E7,3.0640704E7,0E0,0E0,0E0,0E0,0E0,0E0,0E0,0E0],"parents":[2147483647,0,0,1,1,2,2,3,3,4,4,5,5,6,6],"right_children":[2,4,6,8,10,12,14,-1,-1,-1,-1,-1,-1,-1,-1],"split_conditions":[1.117544E2,7.3738E1,1.80466E2,5.13324E1,3.9E1,3.9E1,2.285668E2,-3.0799276E1,-2.17777E1,-1.3122853E1,-2.8385546E0,-9.097867E-1,1.5724614E1,1.7978867E1,3.3303528E1],"split_indices":[3,3,3,3,7,7,3,0,0,0,0,0,0,0,0],"split_type":[0,0,0,0,0,0,0,0,0,0,0,0,0,0,0],"sum_hessian":[5.229E3,1.939E3,3.29E3,8.57E2,1.082E3,1.887E3,1.403E3,4.93E2,3.64E2,9.11E2,1.71E2,1.568E3,3.19E2,8.8E2,5.23E2],"tree_param":{"num_deleted":"0","num_feature":"11","num_nodes":"15","size_leaf_vector":"1"}},{"base_weights":[6.4234376E0,-1.9719243E2,3.925879E2,-2.6164407E2,3.346751E2,-5.611705E2,5.156774E2,-3.4138103E1,-9.918079E0,-1.4403693E1,2.8046942E1,-1.9370451E1,-2.8543365E1,2.2766174E1,5.3833862E1],"categories":[],"categories_nodes":[],"categories_segments":[],"categories_sizes":[],"default_left":[0,0,0,0,0,0,0,0,0,0,0,0,0,0,0],"id":25,"left_children":[1,3,5,7,9,11,13,-1,-1,-1,-1,-1,-1,-1,-1],"loss_changes":[4.0949968E8,1.169815E8,2.113704E8,8.093203E7,5.215573E7,1.25936E5,5.344643E7,0E0,0E0,0E0,0E0,0E0,0E0,0E0,0E0],"parents":[2147483647,0,0,1,1,2,2,3,3,4,4,5,5,6,6],"right_children":[2,4,6,8,10,12,14,-1,-1,-1,-1,-1,-1,-1,-1],"split_conditions":[1.657868E2,3E0,1E0,1E0,7.50696E1,1.4076503E-2,3E0,-3.4138103E1,-9.918079E0,-1.4403693E1,2.8046942E1,-1.9370451E1,-2.8543365E1,2.2766174E1,5.3833862E1],"split_indices":[3,6,6,6,3,2,6,0,0,0,0,0,0,0,0],"split_type":[0,0,0,0,0,0,0,0,0,0,0,0,0,0,0],"sum_hessian":[5.206E3,3.409E3,1.797E3,3.041E3,3.68E2,2.05E2,1.592E3,3.96E2,2.645E3,9.8E1,2.7E2,1.3E1,1.92E2,1.439E3,1.53E2],"tree_param":{"num_deleted":"0","num_feature":"11","num_nodes":"15","size_leaf_vector":"1"}},{"base_weights":[-9.5425E0,-4.1134818E2,1.5170178E2,-5.597016E2,-3.26186E2,-5.8308264E2,2.4559566E2,-3.0408411E1,-2.3916363E1,-1.9156496E1,4.713191E0,-3.271377E1,-2.6055847E1,6.6079173E0,3.3053875E1],"categories":[],"categories_nodes":[],"categories_segments":[],"categories_sizes":[],"default_left":[0,0,0,0,0,0,0,0,0,0,0,0,0,0,0],"id":26,"left_children":[1,3,5,7,9,11,13,-1,-1,-1,-1,-1,-1,-1,-1],"loss_changes":[3.3709408E8,1.864224E7,2.5630957E8,1.846704E6,2.2757112E7,1.516288E6,1.5511549E8,0E0,0E0,0E0,0E0,0E0,0E0,0E0,0E0],"parents":[2147483647,0,0,1,1,2,2,3,3,4,4,5,5,6,6],"right_children":[2,4,6,8,10,12,14,-1,-1,-1,-1,-1,-1,-1,-1],"split_conditions":[9.86726E1,5.33298E1,1E0,4.53718E1,3E0,1.618578E2,1.989768E2,-3.0408411E1,-2.3916363E1,-1.9156496E1,4.713191E0,-3.271377E1,-2.6055847E1,6.6079173E0,3.3053875E1],"split_indices":[3,3,6,3,6,3,3,0,0,0,0,0,0,0,0],"split_type":[0,0,0,0,0,0,0,0,0,0,0,0,0,0,0],"sum_hessian":[5.201E3,1.489E3,3.712E3,5.41E2,9.48E2,4.2E2,3.292E3,3.35E2,2.06E2,8.35E2,1.13E2,1.91E2,2.29E2,2.587E3,7.05E2],"tree_param":{"num_deleted":"0","num_feature":"11","num_nodes":"15","size_leaf_vector":"1"}},{"base_weights":[5.043279E-1,-1.7865707E2,3.393398E2,-3.701439E2,-2.5029087E1,2.547403E2,5.245871E2,-2.6394522E1,-1.4208069E1,-3.7978058E0,5.6191764E0,9.941165E0,2.934632E1,2.3054127E1,4.6314327E1],"categories":[],"categories_nodes":[],"categories_segments":[],"categories_sizes":[],"default_left":[0,0,0,0,0,0,0,0,0,0,0,0,0,0,0],"id":27,"left_children":[1,3,5,7,9,11,13,-1,-1,-1,-1,-1,-1,-1,-1],"loss_changes":[3.1627942E8,1.0024637E8,2.8107024E7,2.0425744E7,1.3248783E7,2.2897544E7,1.39604E7,0E0,0E0,0E0,0E0,0E0,0E0,0E0,0E0],"parents":[2147483647,0,0,1,1,2,2,3,3,4,4,5,5,6,6],"right_children":[2,4,6,8,10,12,14,-1,-1,-1,-1,-1,-1,-1,-1],"split_conditions":[1.657868E2,1.000016E2,2.245746E2,5.33298E1,3.7E1,3.9E1,3E0,-2.6394522E1,-1.4208069E1,-3.7978058E0,5.6191764E0,9.941165E0,2.934632E1,2.3054127E1,4.6314327E1],"split_indices":[3,3,3,3,7,7,4,0,0,0,0,0,0,0,0],"split_type":[0,0,0,0,0,0,0,0,0,0,0,0,0,0,0],"sum_hessian":[5.208E3,3.407E3,1.801E3,1.516E3,1.891E3,1.238E3,5.63E2,5.33E2,9.83E2,1.38E3,5.11E2,1.061E3,1.77E2,4.88E2,7.5E1],"tree_param":{"num_deleted":"0","num_feature":"11","num_nodes":"15","size_leaf_vector":"1"}},{"base_weights":[-6.1460185E0,-3.198575E2,1.7701305E2,-4.620961E2,-2.208233E2,-5.538759E2,2.7116364E2,-2.7785715E1,-1.9689108E1,-3.3129284E1,-8.17586E0,-2.9221128E1,-2.5115705E1,1.0007217E1,4.165295E1],"categories":[],"categories_nodes":[],"categories_segments":[],"categories_sizes":[],"default_left":[0,0,0,0,0,0,0,0,0,0,0,0,0,0,0],"id":28,"left_children":[1,3,5,7,9,11,13,-1,-1,-1,-1,-1,-1,-1,-1],"loss_changes":[2.9959094E8,2.6972176E7,2.2668467E8,4.820768E6,2.8624952E7,2.9864E5,1.1623733E8,0E0,0E0,0E0,0E0,0E0,0E0,0E0,0E0],"parents":[2147483647,0,0,1,1,2,2,3,3,4,4,5,5,6,6],"right_children":[2,4,6,8,10,12,14,-1,-1,-1,-1,-1,-1,-1,-1],"split_conditions":[1.117544E2,6.25536E1,1E0,4.53718E1,1E0,1.84624E2,3E0,-2.7785715E1,-1.9689108E1,-3.3129284E1,-8.17586E0,-2.9221128E1,-2.5115705E1,1.0007217E1,4.165295E1],"split_indices":[3,3,6,3,6,3,6,0,0,0,0,0,0,0,0],"split_type":[0,0,0,0,0,0,0,0,0,0,0,0,0,0,0],"sum_hessian":[5.212E3,1.921E3,3.291E3,7.87E2,1.134E3,3.75E2,2.916E3,3.29E2,4.58E2,1.29E2,1.005E3,2.29E2,1.46E2,2.59E3,3.26E2],"tree_param":{"num_deleted":"0","num_feature":"11","num_nodes":"15","size_leaf_vector":"1"}},{"base_weights":[-4.157552E0,-2.3613289E2,2.3735638E2,-2.911868E2,1.8504552E2,-5.226108E2,3.383554E2,-3.0354532E1,-1.2137656E1,-1.0993751E1,1.9930853E1,-2.6572035E1,-1.8202518E1,9.7670965E0,3.2464283E1],"categories":[],"categories_nodes":[],"categories_segments":[],"categories_sizes":[],"default_left":[0,0,0,0,0,0,0,0,0,0,0,0,0,0,0],"id":29,"left_children":[1,3,5,7,9,11,13,-1,-1,-1,-1,-1,-1,-1,-1],"loss_changes":[2.920598E8,6.1709504E7,1.9621147E8,3.583917E7,2.6723328E7,2.26552E5,1.0014674E8,0E0,0E0,0E0,0E0,0E0,0E0,0E0,0E0],"parents":[2147483647,0,0,1,1,2,2,3,3,4,4,5,5,6,6],"right_children":[2,4,6,8,10,12,14,-1,-1,-1,-1,-1,-1,-1,-1],"split_conditions":[1.434154E2,3E0,1E0,1E0,6.47826E1,2.518408E2,2.053638E2,-3.0354532E1,-1.2137656E1,-1.0993751E1,1.9930853E1,-2.6572035E1,-1.8202518E1,9.7670965E0,3.2464283E1],"split_indices":[3,6,6,6,3,3,3,0,0,0,0,0,0,0,0],"split_type":[0,0,0,0,0,0,0,0,0,0,0,0,0,0,0],"sum_hessian":[5.211E3,2.658E3,2.553E3,2.351E3,3.07E2,2.99E2,2.254E3,3.11E2,2.04E3,1.06E2,2.01E2,2.81E2,1.8E1,1.545E3,7.09E2],"tree_param":{"num_deleted":"0","num_feature":"11","num_nodes":"15","size_leaf_vector":"1"}},{"base_weights":[5.2978945E0,-1.568083E2,3.119848E2,-2.1006102E2,2.79083E2,-4.9256918E2,4.2058047E2,-2.8303009E1,-7.7429423E0,-8.737337E0,2.5612137E1,-2.5673956E1,-1.8716854E1,1.8146194E1,4.7412548E1],"categories":[],"categories_nodes":[],"categories_segments":[],"categories_sizes":[],"default_left":[0,0,0,0,0,0,0,0,0,0,0,0,0,0,0],"id":30,"left_children":[1,3,5,7,9,11,13,-1,-1,-1,-1,-1,-1,-1,-1],"loss_changes":[2.5936678E8,7.928253E7,1.578246E8,5.9693504E7,3.9452624E7,3.39312E5,4.802947E7,0E0,0E0,0E0,0E0,0E0,0E0,0E0,0E0],"parents":[2147483647,0,0,1,1,2,2,3,3,4,4,5,5,6,6],"right_children":[2,4,6,8,10,12,14,-1,-1,-1,-1,-1,-1,-1,-1],"split_conditions":[1.657868E2,3E0,1E0,1E0,8.70198E1,1.4389756E-1,3E0,-2.8303009E1,-7.7429423E0,-8.737337E0,2.5612137E1,-2.5673956E1,-1.8716854E1,1.8146194E1,4.7412548E1],"split_indices":[3,6,6,6,3,2,6,0,0,0,0,0,0,0,0],"split_type":[0,0,0,0,0,0,0,0,0,0,0,0,0,0,0],"sum_hessian":[5.215E3,3.412E3,1.803E3,3.041E3,3.71E2,2.14E2,1.589E3,4.07E2,2.634E3,1.26E2,2.45E2,1.79E2,3.5E1,1.434E3,1.55E2],"tree_param":{"num_deleted":"0","num_feature":"11","num_nodes":"15","size_leaf_vector":"1"}},{"base_weights":[-1.6843349E0,-1.2849136E2,3.6661606E2,-1.8238972E2,2.987871E2,-4.4948935E2,4.769637E2,-2.6586304E1,-6.487411E0,2.764994E-1,2.8562912E1,-6.9368043E0,-2.2627243E1,1.5725464E1,3.278266E1],"categories":[],"categories_nodes":[],"categories_segments":[],"categories_sizes":[],"default_left":[0,0,0,0,0,0,0,0,0,0,0,0,0,0,0],"id":31,"left_children":[1,3,5,7,9,11,13,-1,-1,-1,-1,-1,-1,-1,-1],"loss_changes":[2.4416408E8,8.961666E7,1.2079848E8,6.3448656E7,3.483503E7,8.9136E4,3.404787E7,0E0,0E0,0E0,0E0,0E0,0E0,0E0,0E0],"parents":[2147483647,0,0,1,1,2,2,3,3,4,4,5,5,6,6],"right_children":[2,4,6,8,10,12,14,-1,-1,-1,-1,-1,-1,-1,-1],"split_conditions":[1.819608E2,3E0,1E0,1E0,1.095228E2,6.235E0,2.5E1,-2.6586304E1,-6.487411E0,2.764994E-1,2.8562912E1,-6.9368043E0,-2.2627243E1,1.5725464E1,3.278266E1],"split_indices":[3,6,6,6,3,0,7,0,0,0,0,0,0,0,0],"split_type":[0,0,0,0,0,0,0,0,0,0,0,0,0,0,0],"sum_hessian":[5.226E3,3.888E3,1.338E3,3.453E3,4.35E2,1.59E2,1.179E3,4.51E2,3.002E3,2.1E2,2.25E2,2E0,1.57E2,6.19E2,5.6E2],"tree_param":{"num_deleted":"0","num_feature":"11","num_nodes":"15","size_leaf_vector":"1"}},{"base_weights":[1.0932976E0,-2.2852466E2,1.6344757E2,-4.0331744E2,-1.3118547E2,-4.4682364E2,2.4572922E2,-2.526306E1,-1.6128197E1,-9.36987E0,1.4585505E1,-2.2547592E1,-1.4986063E1,7.288434E0,2.7123976E1],"categories":[],"categories_nodes":[],"categories_segments":[],"categories_sizes":[],"default_left":[0,0,0,0,0,0,0,0,0,0,0,0,0,0,0],"id":32,"left_children":[1,3,5,7,9,11,13,-1,-1,-1,-1,-1,-1,-1,-1],"loss_changes":[1.9638827E8,3.707205E7,1.550706E8,6.258232E6,3.3406468E7,8.7704E4,8.060514E7,0E0,0E0,0E0,0E0,0E0,0E0,0E0,0E0],"parents":[2147483647,0,0,1,1,2,2,3,3,4,4,5,5,6,6],"right_children":[2,4,6,8,10,12,14,-1,-1,-1,-1,-1,-1,-1,-1],"split_conditions":[1.195756E2,6.19168E1,1E0,4.53718E1,3E0,2.596936E2,2.083954E2,-2.526306E1,-1.6128197E1,-9.36987E0,1.4585505E1,-2.2547592E1,-1.4986063E1,7.288434E0,2.7123976E1],"split_indices":[3,3,6,3,6,3,3,0,0,0,0,0,0,0,0],"split_type":[0,0,0,0,0,0,0,0,0,0,0,0,0,0,0],"sum_hessian":[5.266E3,2.181E3,3.085E3,7.79E2,1.402E3,3.66E2,2.719E3,3.42E2,4.37E2,1.238E3,1.64E2,3.54E2,1.2E1,2.035E3,6.84E2],"tree_param":{"num_deleted":"0","num_feature":"11","num_nodes":"15","size_leaf_vector":"1"}},{"base_weights":[5.7266626E0,-1.7034732E2,2.7408302E1,5.6639307E2,-1.778299E2,3.5569572E1,-3.0686246E2,5.7663296E1,-2.0245087E1,-1.1222063E1,-1.820761E0,-2.0988536E0,3.5748403E0,-2.8596504E0,-2.0363522E1],"categories":[],"categories_nodes":[],"categories_segments":[],"categories_sizes":[],"default_left":[0,0,0,0,0,0,0,0,0,0,0,0,0,0,0],"id":33,"left_children":[1,3,5,7,9,11,13,-1,-1,-1,-1,-1,-1,-1,-1],"loss_changes":[1.9951486E7,3.259501E6,1.2704642E7,3.887118E6,3.735818E6,1.2659964E7,2.759343E6,0E0,0E0,0E0,0E0,0E0,0E0,0E0,0E0],"parents":[2147483647,0,0,1,1,2,2,3,3,4,4,5,5,6,6],"right_children":[2,4,6,8,10,12,14,-1,-1,-1,-1,-1,-1,-1,-1],"split_conditions":[1.7E1,5.155E0,2.06E1,4.644733E-2,8.816538E-2,1E0,2.4937792E-2,5.7663296E1,-2.0245087E1,-1.1222063E1,-1.820761E0,-2.0988536E0,3.5748403E0,-2.8596504E0,-2.0363522E1],"split_indices":[7,0,0,2,2,5,2,0,0,0,0,0,0,0,0],"split_type":[0,0,0,0,0,0,0,0,0,0,0,0,0,0,0],"sum_hessian":[5.224E3,5.72E2,4.652E3,5E0,5.67E2,4.542E3,1.1E2,3E0,2E0,4.26E2,1.41E2,1.438E3,3.104E3,3.2E1,7.8E1],"tree_param":{"num_deleted":"0","num_feature":"11","num_nodes":"15","size_leaf_vector":"1"}},{"base_weights":[7.3039103E0,-1.2613995E2,3.2101535E2,-1.815636E2,3.0686072E2,-4.0318127E2,4.1960898E2,-1.7201294E1,-4.078255E0,3.695434E-1,2.948296E1,-2.2384462E1,-1.7998476E1,1.8638859E1,4.306661E1],"categories":[],"categories_nodes":[],"categories_segments":[],"categories_sizes":[],"default_left":[0,0,0,0,0,0,0,0,0,0,0,0,0,0,0],"id":34,"left_children":[1,3,5,7,9,11,13,-1,-1,-1,-1,-1,-1,-1,-1],"loss_changes":[2.2065781E8,8.88021E7,1.124832E8,5.324251E7,3.556528E7,2.0234E5,2.8329952E7,0E0,0E0,0E0,0E0,0E0,0E0,0E0,0E0],"parents":[2147483647,0,0,1,1,2,2,3,3,4,4,5,5,6,6],"right_children":[2,4,6,8,10,12,14,-1,-1,-1,-1,-1,-1,-1,-1],"split_conditions":[1.764028E2,3E0,1E0,9.5212E1,1.095228E2,7.57213E-2,3E0,-1.7201294E1,-4.078255E0,3.695434E-1,2.948296E1,-2.2384462E1,-1.7998476E1,1.8638859E1,4.306661E1],"split_indices":[3,6,6,3,3,2,6,0,0,0,0,0,0,0,0],"split_type":[0,0,0,0,0,0,0,0,0,0,0,0,0,0,0],"sum_hessian":[5.269E3,3.697E3,1.572E3,3.278E3,4.19E2,1.88E2,1.384E3,1.248E3,2.03E3,2.04E2,2.15E2,8.8E1,1E2,1.253E3,1.31E2],"tree_param":{"num_deleted":"0","num_feature":"11","num_nodes":"15","size_leaf_vector":"1"}},{"base_weights":[-5.074726E0,-1.6394217E2,2.2015462E2,-3.07647E2,-5.8379784E1,-4.0120398E2,3.024119E2,-2.1012249E1,-1.190303E1,-2.4680132E1,-4.4323705E-2,-1.4759471E1,-2.1319204E1,1.005914E1,2.8099527E1],"categories":[],"categories_nodes":[],"categories_segments":[],"categories_sizes":[],"default_left":[0,0,0,0,0,0,0,0,0,0,0,0,0,0,0],"id":35,"left_children":[1,3,5,7,9,11,13,-1,-1,-1,-1,-1,-1,-1,-1],"loss_changes":[1.8763906E8,4.6629264E7,1.1098166E8,1.0101496E7,4.4389304E7,5.52176E5,5.023349E7,0E0,0E0,0E0,0E0,0E0,0E0,0E0,0E0],"parents":[2147483647,0,0,1,1,2,2,3,3,4,4,5,5,6,6],"right_children":[2,4,6,8,10,12,14,-1,-1,-1,-1,-1,-1,-1,-1],"split_conditions":[1.548972E2,9.1812E1,1E0,5.13324E1,1E0,4.0172078E-2,2.230404E2,-2.1012249E1,-1.190303E1,-2.4680132E1,-4.4323705E-2,-1.4759471E1,-2.1319204E1,1.005914E1,2.8099527E1],"split_indices":[3,3,6,3,6,2,3,0,0,0,0,0,0,0,0],"split_type":[0,0,0,0,0,0,0,0,0,0,0,0,0,0,0],"sum_hessian":[5.242E3,3.074E3,2.168E3,1.301E3,1.773E3,2.53E2,1.915E3,4.95E2,8.06E2,2.06E2,1.567E3,5.1E1,2.02E2,1.379E3,5.36E2],"tree_param":{"num_deleted":"0","num_feature":"11","num_nodes":"15","size_leaf_vector":"1"}},{"base_weights":[3.8490052E0,-1.28281E2,2.5226591E2,-1.7428293E2,2.3490454E2,-3.8092892E2,3.3471625E2,-1.522199E1,-3.4543958E0,-1.6329628E1,1.6805754E1,-2.0762333E1,-1.6930187E1,1.3880638E1,4.256057E1],"categories":[],"categories_nodes":[],"categories_segments":[],"categories_sizes":[],"default_left":[0,0,0,0,0,0,0,0,0,0,0,0,0,0,0],"id":36,"left_children":[1,3,5,7,9,11,13,-1,-1,-1,-1,-1,-1,-1,-1],"loss_changes":[1.7110755E8,5.689566E7,9.462242E7,4.134205E7,2.187544E7,1.6297E5,4.701256E7,0E0,0E0,0E0,0E0,0E0,0E0,0E0,0E0],"parents":[2147483647,0,0,1,1,2,2,3,3,4,4,5,5,6,6],"right_children":[2,4,6,8,10,12,14,-1,-1,-1,-1,-1,-1,-1,-1],"split_conditions":[1.657868E2,3E0,1E0,1.000016E2,5.43956E1,1.965768E2,3E0,-1.522199E1,-3.4543958E0,-1.6329628E1,1.6805754E1,-2.0762333E1,-1.6930187E1,1.3880638E1,4.256057E1],"split_indices":[3,6,6,3,3,3,6,0,0,0,0,0,0,0,0],"split_type":[0,0,0,0,0,0,0,0,0,0,0,0,0,0,0],"sum_hessian":[5.211E3,3.402E3,1.809E3,3.02E3,3.82E2,2.08E2,1.601E3,1.349E3,1.671E3,5.8E1,3.24E2,1.1E2,9.8E1,1.443E3,1.58E2],"tree_param":{"num_deleted":"0","num_feature":"11","num_nodes":"15","size_leaf_vector":"1"}},{"base_weights":[-4.2393174E0,-2.117624E1,4.89437E1,5.443333E0,3.8319943E2,2.0721176E0,-1.0218486E1,2.064942E1,2.9747286E0],"categories":[],"categories_nodes":[],"categories_segments":[],"categories_sizes":[],"default_left":[0,0,0,0,0,0,0,0,0],"id":37,"left_children":[1,-1,3,5,7,-1,-1,-1,-1],"loss_changes":[1.1608634E8,0E0,6.717386E7,3.0892952E7,5.105424E6,0E0,0E0,0E0,0E0],"parents":[2147483647,0,0,2,2,3,3,4,4],"right_children":[2,-1,4,6,8,-1,-1,-1,-1],"split_conditions":[1E0,-2.117624E1,3E0,2E0,1E0,2.0721176E0,-1.0218486E1,2.064942E1,2.9747286E0],"split_indices":[6,0,6,6,8,0,0,0,0],"split_type":[0,0,0,0,0,0,0,0,0],"sum_hessian":[5.204E3,5.85E2,4.619E3,4.088E3,5.31E2,3.49E3,5.98E2,4.86E2,4.5E1],"tree_param":{"num_deleted":"0","num_feature":"11","num_nodes":"9","size_leaf_vector":"1"}},{"base_weights":[-5.3302574E0,-1.4483488E2,1.9951448E2,-3.4133365E2,-7.89666E1,1.0655947E2,3.5996927E2,-2.0795515E1,-1.4177446E1,-1.3370769E1,-2.7883515E0,2.6897352E0,1.911466E1,1.4219398E0,2.0288635E1],"categories":[],"categories_nodes":[],"categories_segments":[],"categories_sizes":[],"default_left":[0,0,0,0,0,0,0,0,0,0,0,0,0,0,0],"id":38,"left_children":[1,3,5,7,9,11,13,-1,-1,-1,-1,-1,-1,-1,-1],"loss_changes":[1.504571E8,4.0510644E7,3.1775504E7,3.269248E6,1.0246008E7,1.964972E7,1.1863312E7,0E0,0E0,0E0,0E0,0E0,0E0,0E0,0E0],"parents":[2147483647,0,0,1,1,2,2,3,3,4,4,5,5,6,6],"right_children":[2,4,6,8,10,12,14,-1,-1,-1,-1,-1,-1,-1,-1],"split_conditions":[1.564604E2,6.25536E1,2.083954E2,4.53718E1,1.7E1,3.9E1,1.7E1,-2.0795515E1,-1.4177446E1,-1.3370769E1,-2.7883515E0,2.6897352E0,1.911466E1,1.4219398E0,2.0288635E1],"split_indices":[3,3,3,3,7,7,7,0,0,0,0,0,0,0,0],"split_type":[0,0,0,0,0,0,0,0,0,0,0,0,0,0,0],"sum_hessian":[5.263E3,3.131E3,2.132E3,7.85E2,2.346E3,1.351E3,7.81E2,3.4E2,4.45E2,2.56E2,2.09E3,1.135E3,2.16E2,9.5E1,6.86E2],"tree_param":{"num_deleted":"0","num_feature":"11","num_nodes":"15","size_leaf_vector":"1"}},{"base_weights":[8.629022E0,-9.598241E1,2.9733832E2,-1.4101167E2,2.5488852E2,-3.4064618E2,3.8288855E2,-1.4500461E1,-2.9334607E0,-5.67104E-1,2.5877014E1,-2.3224657E1,-1.6211489E1,2.0170238E1,-2.7194233E1],"categories":[],"categories_nodes":[],"categories_segments":[],"categories_sizes":[],"default_left":[0,0,0,0,0,0,0,0,0,0,0,0,0,0,0],"id":39,"left_children":[1,3,5,7,9,11,13,-1,-1,-1,-1,-1,-1,-1,-1],"loss_changes":[1.5795634E8,6.0690084E7,7.605079E7,4.173379E7,3.05635E7,1.84864E5,2.354944E7,0E0,0E0,0E0,0E0,0E0,0E0,0E0,0E0],"parents":[2147483647,0,0,1,1,2,2,3,3,4,4,5,5,6,6],"right_children":[2,4,6,8,10,12,14,-1,-1,-1,-1,-1,-1,-1,-1],"split_conditions":[1.80466E2,3E0,1E0,9.46436E1,1.095228E2,7.93E0,2.07E1,-1.4500461E1,-2.9334607E0,-5.67104E-1,2.5877014E1,-2.3224657E1,-1.6211489E1,2.0170238E1,-2.7194233E1],"split_indices":[3,6,6,3,3,0,0,0,0,0,0,0,0,0,0],"split_type":[0,0,0,0,0,0,0,0,0,0,0,0,0,0,0],"sum_hessian":[5.228E3,3.838E3,1.39E3,3.402E3,4.36E2,1.64E2,1.226E3,1.21E3,2.192E3,2.17E2,2.19E2,1.6E1,1.48E2,1.2E3,2.6E1],"tree_param":{"num_deleted":"0","num_feature":"11","num_nodes":"15","size_leaf_vector":"1"}},{"base_weights":[-7.8444624E0,-1.21276924E2,2.0648325E2,-1.6109096E2,1.9172728E2,-3.4091916E2,2.800896E2,-2.1173506E1,-6.1662116E0,-4.846569E-1,2.2221601E1,-2.3771399E1,-1.6465034E1,1.1779414E1,3.3432755E1],"categories":[],"categories_nodes":[],"categories_segments":[],"categories_sizes":[],"default_left":[0,0,0,0,0,0,0,0,0,0,0,0,0,0,0],"id":40,"left_children":[1,3,5,7,9,11,13,-1,-1,-1,-1,-1,-1,-1,-1],"loss_changes":[1.28342296E8,4.304956E7,7.370951E7,3.0299672E7,1.9855268E7,1.82564E5,2.7699344E7,0E0,0E0,0E0,0E0,0E0,0E0,0E0,0E0],"parents":[2147483647,0,0,1,1,2,2,3,3,4,4,5,5,6,6],"right_children":[2,4,6,8,10,12,14,-1,-1,-1,-1,-1,-1,-1,-1],"split_conditions":[1.657868E2,3E0,1E0,1E0,1.095228E2,1.704422E2,3E0,-2.1173506E1,-6.1662116E0,-4.846569E-1,2.2221601E1,-2.3771399E1,-1.6465034E1,1.1779414E1,3.3432755E1],"split_indices":[3,6,6,6,3,3,6,0,0,0,0,0,0,0,0],"split_type":[0,0,0,0,0,0,0,0,0,0,0,0,0,0,0],"sum_hessian":[5.277E3,3.451E3,1.826E3,3.062E3,3.89E2,2.16E2,1.61E3,3.84E2,2.678E3,2.17E2,1.72E2,1.4E1,2.02E2,1.446E3,1.64E2],"tree_param":{"num_deleted":"0","num_feature":"11","num_nodes":"15","size_leaf_vector":"1"}},{"base_weights":[8.345942E-1,-2.1840749E2,9.263903E1,-3.4767117E2,-1.4902068E2,-3.562217E2,1.5263275E2,-2.1467989E1,-1.5833786E1,-9.534335E0,7.257348E0,-2.0328135E1,-1.5068611E1,4.570052E0,1.9452036E1],"categories":[],"categories_nodes":[],"categories_segments":[],"categories_sizes":[],"default_left":[0,0,0,0,0,0,0,0,0,0,0,0,0,0,0],"id":41,"left_children":[1,3,5,7,9,11,13,-1,-1,-1,-1,-1,-1,-1,-1],"loss_changes":[1.05769576E8,1.3859416E7,9.979875E7,1.233832E6,1.24193E7,1.084108E6,4.727091E7,0E0,0E0,0E0,0E0,0E0,0E0,0E0,0E0],"parents":[2147483647,0,0,1,1,2,2,3,3,4,4,5,5,6,6],"right_children":[2,4,6,8,10,12,14,-1,-1,-1,-1,-1,-1,-1,-1],"split_conditions":[1.000016E2,5.33298E1,1E0,3.83848E1,3E0,1.704422E2,2.083954E2,-2.1467989E1,-1.5833786E1,-9.534335E0,7.257348E0,-2.0328135E1,-1.5068611E1,4.570052E0,1.9452036E1],"split_indices":[3,3,6,3,6,3,3,0,0,0,0,0,0,0,0],"split_type":[0,0,0,0,0,0,0,0,0,0,0,0,0,0,0],"sum_hessian":[5.253E3,1.55E3,3.703E3,5.4E2,1.01E3,4.36E2,3.267E3,1.45E2,3.95E2,8.85E2,1.25E2,2.24E2,2.12E2,2.596E3,6.71E2],"tree_param":{"num_deleted":"0","num_feature":"11","num_nodes":"15","size_leaf_vector":"1"}},{"base_weights":[-2.6245558E0,-2.1143304E2,8.560188E1,-3.2707327E2,-1.5714265E2,2.2706852E1,3.002825E2,-1.9858185E1,-1.4792716E1,-8.88724E0,-3.095596E0,-1.3452461E0,7.6367126E0,2.1878967E1,5.831684E0],"categories":[],"categories_nodes":[],"categories_segments":[],"categories_sizes":[],"default_left":[0,0,0,0,0,0,0,0,0,0,0,0,0,0,0],"id":42,"left_children":[1,3,5,7,9,11,13,-1,-1,-1,-1,-1,-1,-1,-1],"loss_changes":[9.5888424E7,9.654632E6,4.9398256E7,9.61256E5,2.0569E6,1.826658E7,2.0851704E7,0E0,0E0,0E0,0E0,0E0,0E0,0E0,0E0],"parents":[2147483647,0,0,1,1,2,2,3,3,4,4,5,5,6,6],"right_children":[2,4,6,8,10,12,14,-1,-1,-1,-1,-1,-1,-1,-1],"split_conditions":[1.005332E2,5.13324E1,2.053638E2,3.83848E1,3.9E1,3.7E1,6.729025E-2,-1.9858185E1,-1.4792716E1,-8.88724E0,-3.095596E0,-1.3452461E0,7.6367126E0,2.1878967E1,5.831684E0],"split_indices":[3,3,3,3,7,7,2,0,0,0,0,0,0,0,0],"split_type":[0,0,0,0,0,0,0,0,0,0,0,0,0,0,0],"sum_hessian":[5.203E3,1.545E3,3.658E3,4.92E2,1.053E3,2.83E3,8.28E2,1.48E2,3.44E2,8.65E2,1.88E2,2.049E3,7.81E2,4.73E2,3.55E2],"tree_param":{"num_deleted":"0","num_feature":"11","num_nodes":"15","size_leaf_vector":"1"}},{"base_weights":[-9.073595E0,-8.898989E1,1.9946773E2,-2.5266609E2,-2.4322424E1,1.1070082E2,3.5052988E2,-1.7972416E1,-1.03425045E1,-8.634222E0,-3.1719905E-1,8.307209E0,-8.253261E0,3.0957825E1,1.3516449E1],"categories":[],"categories_nodes":[],"categories_segments":[],"categories_sizes":[],"default_left":[0,0,0,0,0,0,0,0,0,0,0,0,0,0,0],"id":43,"left_children":[1,3,5,7,9,11,13,-1,-1,-1,-1,-1,-1,-1,-1],"loss_changes":[8.68635E7,3.9876344E7,1.9324256E7,5.145768E6,7.205998E6,1.3956061E7,1.1337176E7,0E0,0E0,0E0,0E0,0E0,0E0,0E0,0E0],"parents":[2147483647,0,0,1,1,2,2,3,3,4,4,5,5,6,6],"right_children":[2,4,6,8,10,12,14,-1,-1,-1,-1,-1,-1,-1,-1],"split_conditions":[1.78566E2,8.39908E1,2.27372E2,4.53718E1,1.7E1,1E0,2.2170592E-2,-1.7972416E1,-1.03425045E1,-8.634222E0,-3.1719905E-1,8.307209E0,-8.253261E0,3.0957825E1,1.3516449E1],"split_indices":[3,3,3,3,7,10,2,0,0,0,0,0,0,0,0],"split_type":[0,0,0,0,0,0,0,0,0,0,0,0,0,0,0],"sum_hessian":[5.21E3,3.767E3,1.443E3,1.066E3,2.701E3,9.1E2,5.33E2,3.18E2,7.48E2,2.91E2,2.41E3,7.58E2,1.52E2,1.21E2,4.12E2],"tree_param":{"num_deleted":"0","num_feature":"11","num_nodes":"15","size_leaf_vector":"1"}},{"base_weights":[-7.0870817E-1,-7.8455284E1,2.2405325E2,-2.1375545E2,-1.2964247E1,2.423044E2,-4.6754868E2,-1.4710121E1,-8.128459E0,-9.977613E0,4.5571175E-1,8.990832E0,1.71511E1,5.2254874E-1,-3.586971E1],"categories":[],"categories_nodes":[],"categories_segments":[],"categories_sizes":[],"default_left":[0,0,0,0,0,0,0,0,0,0,0,0,0,0,0],"id":44,"left_children":[1,3,5,7,9,11,13,-1,-1,-1,-1,-1,-1,-1,-1],"loss_changes":[9.165372E7,3.4528344E7,1.7128464E7,5.185872E6,1.0823956E7,8.208128E6,4.1874105E6,0E0,0E0,0E0,0E0,0E0,0E0,0E0,0E0],"parents":[2147483647,0,0,1,1,2,2,3,3,4,4,5,5,6,6],"right_children":[2,4,6,8,10,12,14,-1,-1,-1,-1,-1,-1,-1,-1],"split_conditions":[1.819608E2,9.0783E1,2.07E1,5.13324E1,1.7E1,2.285668E2,2E0,-1.4710121E1,-8.128459E0,-9.977613E0,4.5571175E-1,8.990832E0,1.71511E1,5.2254874E-1,-3.586971E1],"split_indices":[3,3,0,3,7,3,4,0,0,0,0,0,0,0,0],"split_type":[0,0,0,0,0,0,0,0,0,0,0,0,0,0,0],"sum_hessian":[5.243E3,3.896E3,1.347E3,1.27E3,2.626E3,1.313E3,3.4E1,4.92E2,7.78E2,2.77E2,2.349E3,8.12E2,5.01E2,1.2E1,2.2E1],"tree_param":{"num_deleted":"0","num_feature":"11","num_nodes":"15","size_leaf_vector":"1"}},{"base_weights":[1.2876344E1,-6.880312E1,2.1415903E2,-1.768678E2,1.1578519E1,-3.4226124E1,2.4969563E2,-1.3297254E1,-6.537521E0,8.990019E-1,-3.6937683E1,-9.703499E0,3.5009087E1,7.562931E0,1.734307E1],"categories":[],"categories_nodes":[],"categories_segments":[],"categories_sizes":[],"default_left":[0,0,0,0,0,0,0,0,0,0,0,0,0,0,0],"id":45,"left_children":[1,3,5,7,9,11,13,-1,-1,-1,-1,-1,-1,-1,-1],"loss_changes":[8.560481E7,3.2176532E7,1.3275176E7,6.455884E6,1.0220222E7,2.23227E7,1.252512E7,0E0,0E0,0E0,0E0,0E0,0E0,0E0,0E0],"parents":[2147483647,0,0,1,1,2,2,3,3,4,4,5,5,6,6],"right_children":[2,4,6,8,10,12,14,-1,-1,-1,-1,-1,-1,-1,-1],"split_conditions":[1.764028E2,1.005332E2,1.7E1,5.33298E1,1.75737E2,9.728098E-2,2.083954E2,-1.3297254E1,-6.537521E0,8.990019E-1,-3.6937683E1,-9.703499E0,3.5009087E1,7.562931E0,1.734307E1],"split_indices":[3,3,7,3,3,2,3,0,0,0,0,0,0,0,0],"split_type":[0,0,0,0,0,0,0,0,0,0,0,0,0,0,0],"sum_hessian":[5.205E3,3.703E3,1.502E3,1.579E3,2.124E3,1.88E2,1.314E3,5.37E2,1.042E3,2.107E3,1.7E1,1.55E2,3.3E1,6.54E2,6.6E2],"tree_param":{"num_deleted":"0","num_feature":"11","num_nodes":"15","size_leaf_vector":"1"}},{"base_weights":[7.764705E0,-3.6273126E2,5.649148E1,-1.8871935E1,-3.197291E2,2.405815E1,3.0104108E2,6.169088E0,-1.6301956E1,2.4719553E0,-6.3724184E0,1.3925092E1,3.884241E1],"categories":[],"categories_nodes":[],"categories_segments":[],"categories_sizes":[],"default_left":[0,0,0,0,0,0,0,0,0,0,0,0,0],"id":46,"left_children":[1,3,5,-1,7,9,11,-1,-1,-1,-1,-1,-1],"loss_changes":[9.474498E7,2.6512E5,3.6779324E7,0E0,4.93186E5,1.5756978E7,5.606964E6,0E0,0E0,0E0,0E0,0E0,0E0],"parents":[2147483647,0,0,1,1,2,2,4,4,5,5,6,6],"right_children":[2,4,6,-1,8,10,12,-1,-1,-1,-1,-1,-1],"split_conditions":[1E0,1.335E1,3E0,-1.8871935E1,1.35E1,2E0,1.5679778E-1,6.169088E0,-1.6301956E1,2.4719553E0,-6.3724184E0,1.3925092E1,3.884241E1],"split_indices":[6,0,6,0,0,6,2,0,0,0,0,0,0],"split_type":[0,0,0,0,0,0,0,0,0,0,0,0,0],"sum_hessian":[5.246E3,6.09E2,4.637E3,4.48E2,1.61E2,4.095E3,5.42E2,2E0,1.59E2,3.508E3,5.87E2,5.19E2,2.3E1],"tree_param":{"num_deleted":"0","num_feature":"11","num_nodes":"13","size_leaf_vector":"1"}},{"base_weights":[1.0191349E1,-8.014185E1,1.7659424E2,-1.7638106E2,-5.819934E0,1.9039665E2,-6.135047E2,-1.2872551E1,-6.4415092E0,-1.0011442E1,8.9307326E-1,8.960115E0,4.7774166E1,-4.1808147E1,1.5057754E1],"categories":[],"categories_nodes":[],"categories_segments":[],"categories_sizes":[],"default_left":[0,0,0,0,0,0,0,0,0,0,0,0,0,0,0],"id":47,"left_children":[1,3,5,7,9,11,13,-1,-1,-1,-1,-1,-1,-1,-1],"loss_changes":[7.903584E7,2.4375314E7,2.029154E7,5.691428E6,8.861431E6,1.540786E7,6.768822E6,0E0,0E0,0E0,0E0,0E0,0E0,0E0,0E0],"parents":[2147483647,0,0,1,1,2,2,3,3,4,4,5,5,6,6],"right_children":[2,4,6,8,10,12,14,-1,-1,-1,-1,-1,-1,-1,-1],"split_conditions":[1.657868E2,9.86726E1,2.085E1,5.33298E1,1.7E1,2.643226E2,2.245746E2,-1.2872551E1,-6.4415092E0,-1.0011442E1,8.9307326E-1,8.960115E0,4.7774166E1,-4.1808147E1,1.5057754E1],"split_indices":[3,3,0,3,7,3,3,0,0,0,0,0,0,0,0],"split_type":[0,0,0,0,0,0,0,0,0,0,0,0,0,0,0],"sum_hessian":[5.256E3,3.407E3,1.849E3,1.484E3,1.923E3,1.818E3,3.1E1,5.47E2,9.37E2,2.08E2,1.715E3,1.793E3,2.5E1,2.5E1,6E0],"tree_param":{"num_deleted":"0","num_feature":"11","num_nodes":"15","size_leaf_vector":"1"}},{"base_weights":[-2.1805613E0,-3.4001218E2,4.1913517E1,-3.4163785E2,-1.9475793E2,1.0539001E1,2.7406577E2,-6.6714473E0,-1.712338E1,-1.1572517E1,2.4695344E0,1.5925711E0,-5.825781E0,1.2748122E1,3.50348E1],"categories":[],"categories_nodes":[],"categories_segments":[],"categories_sizes":[],"default_left":[0,0,0,0,0,0,0,0,0,0,0,0,0,0,0],"id":48,"left_children":[1,3,5,7,9,11,13,-1,-1,-1,-1,-1,-1,-1,-1],"loss_changes":[7.780311E7,7.5856E4,3.3647644E7,5.7096E4,9.205709E4,1.1027335E7,4.303884E6,0E0,0E0,0E0,0E0,0E0,0E0,0E0,0E0],"parents":[2147483647,0,0,1,1,2,2,3,3,4,4,5,5,6,6],"right_children":[2,4,6,8,10,12,14,-1,-1,-1,-1,-1,-1,-1,-1],"split_conditions":[1E0,2.075E1,3E0,5.485E0,1E0,2E0,1.5679778E-1,-6.6714473E0,-1.712338E1,-1.1572517E1,2.4695344E0,1.5925711E0,-5.825781E0,1.2748122E1,3.50348E1],"split_indices":[6,0,6,0,1,6,2,0,0,0,0,0,0,0,0],"split_type":[0,0,0,0,0,0,0,0,0,0,0,0,0,0,0],"sum_hessian":[5.221E3,6.02E2,4.619E3,5.94E2,8E0,4.07E3,5.49E2,3E0,5.91E2,7E0,1E0,3.486E3,5.84E2,5.27E2,2.2E1],"tree_param":{"num_deleted":"0","num_feature":"11","num_nodes":"15","size_leaf_vector":"1"}},{"base_weights":[-7.09368E0,-3.2272775E2,3.4154324E1,-2.1592047E2,-3.3715143E2,-1.2374477E2,1.2053262E2,-1.0981392E1,-2.686717E0,-1.8868086E1,-1.5512787E1,-1.1625201E1,-2.373703E0,4.065891E0,2.22265E1],"categories":[],"categories_nodes":[],"categories_segments":[],"categories_sizes":[],"default_left":[0,0,0,0,0,0,0,0,0,0,0,0,0,0,0],"id":49,"left_children":[1,3,5,7,9,11,13,-1,-1,-1,-1,-1,-1,-1,-1],"loss_changes":[6.837523E7,8.6232E5,6.3368324E7,3.329475E4,4.59352E5,1.3617888E7,3.811845E7,0E0,0E0,0E0,0E0,0E0,0E0,0E0,0E0],"parents":[2147483647,0,0,1,1,2,2,3,3,4,4,5,5,6,6],"right_children":[2,4,6,8,10,12,14,-1,-1,-1,-1,-1,-1,-1,-1],"split_conditions":[1E0,5.6293E1,1.095228E2,1.8625085E-1,1.309968E2,6.25536E1,3E0,-1.0981392E1,-2.686717E0,-1.8868086E1,-1.5512787E1,-1.1625201E1,-2.373703E0,4.065891E0,2.22265E1],"split_indices":[6,3,3,2,3,3,6,0,0,0,0,0,0,0,0],"split_type":[0,0,0,0,0,0,0,0,0,0,0,0,0,0,0],"sum_hessian":[5.25E3,6.06E2,4.644E3,7.4E1,5.32E2,1.642E3,3.002E3,7.2E1,2E0,2.08E2,3.24E2,6.76E2,9.66E2,2.679E3,3.23E2],"tree_param":{"num_deleted":"0","num_feature":"11","num_nodes":"15","size_leaf_vector":"1"}},{"base_weights":[-1.8426026E0,-3.059985E2,3.7836018E1,-2.0026044E2,-3.190394E2,-1.1254807E2,1.2684377E2,-1.00857725E1,-2.533018E0,-1.7885511E1,-1.4924098E1,-1.1510309E1,-2.4550653E0,4.320376E0,2.212987E1],"categories":[],"categories_nodes":[],"categories_segments":[],"categories_sizes":[],"default_left":[0,0,0,0,0,0,0,0,0,0,0,0,0,0,0],"id":50,"left_children":[1,3,5,7,9,11,13,-1,-1,-1,-1,-1,-1,-1,-1],"loss_changes":[6.316596E7,7.6898E5,6.198845E7,4.8E3,3.19336E5,1.2843474E7,3.7103564E7,0E0,0E0,0E0,0E0,0E0,0E0,0E0,0E0],"parents":[2147483647,0,0,1,1,2,2,3,3,4,4,5,5,6,6],"right_children":[2,4,6,8,10,12,14,-1,-1,-1,-1,-1,-1,-1,-1],"split_conditions":[1E0,5.43956E1,1.117544E2,1.8625085E-1,1.200098E2,5.93536E1,3E0,-1.00857725E1,-2.533018E0,-1.7885511E1,-1.4924098E1,-1.1510309E1,-2.4550653E0,4.320376E0,2.212987E1],"split_indices":[6,3,3,2,3,3,6,0,0,0,0,0,0,0,0],"split_type":[0,0,0,0,0,0,0,0,0,0,0,0,0,0,0],"sum_hessian":[5.232E3,6.03E2,4.629E3,6.8E1,5.35E2,1.721E3,2.908E3,6.7E1,1E0,1.8E2,3.55E2,6.02E2,1.119E3,2.579E3,3.29E2],"tree_param":{"num_deleted":"0","num_feature":"11","num_nodes":"15","size_leaf_vector":"1"}},{"base_weights":[-1.3498375E1,-7.52802E1,1.6286891E2,-1.0974484E2,2.0630438E2,-2.755284E2,2.2233171E2,-1.492688E1,-4.0503154E0,-8.826038E-1,2.0037043E1,-1.2384078E1,-1.5685122E1,9.562825E0,2.626009E1],"categories":[],"categories_nodes":[],"categories_segments":[],"categories_sizes":[],"default_left":[0,0,0,0,0,0,0,0,0,0,0,0,0,0,0],"id":51,"left_children":[1,3,5,7,9,11,13,-1,-1,-1,-1,-1,-1,-1,-1],"loss_changes":[5.7163316E7,3.772545E7,3.5540256E7,1.8759336E7,1.847028E7,9.5576E4,1.118424E7,0E0,0E0,0E0,0E0,0E0,0E0,0E0,0E0],"parents":[2147483647,0,0,1,1,2,2,3,3,4,4,5,5,6,6],"right_children":[2,4,6,8,10,12,14,-1,-1,-1,-1,-1,-1,-1,-1],"split_conditions":[1.819608E2,3E0,1E0,1E0,1.095228E2,2.259404E2,3E0,-1.492688E1,-4.0503154E0,-8.826038E-1,2.0037043E1,-1.2384078E1,-1.5685122E1,9.562825E0,2.626009E1],"split_indices":[3,6,6,6,3,3,6,0,0,0,0,0,0,0,0],"split_type":[0,0,0,0,0,0,0,0,0,0,0,0,0,0,0],"sum_hessian":[5.244E3,3.884E3,1.36E3,3.461E3,4.23E2,1.62E2,1.198E3,4.56E2,3.005E3,1.97E2,2.26E2,9.8E1,6.4E1,1.088E3,1.1E2],"tree_param":{"num_deleted":"0","num_feature":"11","num_nodes":"15","size_leaf_vector":"1"}},{"base_weights":[2.0826113E0,-2.789421E2,3.986802E1,-1.6843684E2,-2.915353E2,-1.1065357E2,1.20947205E2,-8.4869E0,-2.0965207E0,-1.644827E1,-1.3352139E1,-1.1784506E1,-3.3276715E0,4.270726E0,2.0495855E1],"categories":[],"categories_nodes":[],"categories_segments":[],"categories_sizes":[],"default_left":[0,0,0,0,0,0,0,0,0,0,0,0,0,0,0],"id":52,"left_children":[1,3,5,7,9,11,13,-1,-1,-1,-1,-1,-1,-1,-1],"loss_changes":[5.5727092E7,8.16476E5,5.6469864E7,3.747E3,4.22788E5,8.917208E6,3.0840484E7,0E0,0E0,0E0,0E0,0E0,0E0,0E0,0E0],"parents":[2147483647,0,0,1,1,2,2,3,3,4,4,5,5,6,6],"right_children":[2,4,6,8,10,12,14,-1,-1,-1,-1,-1,-1,-1,-1],"split_conditions":[1E0,5.43956E1,1.095228E2,1.8625085E-1,1.241072E2,5.13324E1,3E0,-8.4869E0,-2.0965207E0,-1.644827E1,-1.3352139E1,-1.1784506E1,-3.3276715E0,4.270726E0,2.0495855E1],"split_indices":[6,3,3,2,3,3,6,0,0,0,0,0,0,0,0],"split_type":[0,0,0,0,0,0,0,0,0,0,0,0,0,0,0],"sum_hessian":[5.246E3,6.21E2,4.625E3,6.5E1,5.56E2,1.619E3,3.006E3,6.4E1,1E0,2.15E2,3.41E2,4.21E2,1.198E3,2.678E3,3.28E2],"tree_param":{"num_deleted":"0","num_feature":"11","num_nodes":"15","size_leaf_vector":"1"}},{"base_weights":[6.4889467E-1,-9.669119E1,9.843287E1,-1.9607326E2,-5.373117E1,-2.5550081E2,1.4757326E2,-1.3794568E1,-8.683295E0,-1.53916855E1,-1.1247821E0,-9.968637E0,-1.3517987E1,8.302127E0,-2.2734152E1],"categories":[],"categories_nodes":[],"categories_segments":[],"categories_sizes":[],"default_left":[0,0,0,0,0,0,0,0,0,0,0,0,0,0,0],"id":53,"left_children":[1,3,5,7,9,11,13,-1,-1,-1,-1,-1,-1,-1,-1],"loss_changes":[5.0180484E7,1.1269364E7,4.577981E7,1.377532E6,1.4644826E7,2.13814E5,2.5770172E7,0E0,0E0,0E0,0E0,0E0,0E0,0E0,0E0],"parents":[2147483647,0,0,1,1,2,2,3,3,4,4,5,5,6,6],"right_children":[2,4,6,8,10,12,14,-1,-1,-1,-1,-1,-1,-1,-1],"split_conditions":[1.409154E2,6.25536E1,1E0,3.91506E1,1E0,4.0172078E-2,2.07E1,-1.3794568E1,-8.683295E0,-1.53916855E1,-1.1247821E0,-9.968637E0,-1.3517987E1,8.302127E0,-2.2734152E1],"split_indices":[3,3,6,3,6,2,0,0,0,0,0,0,0,0,0],"split_type":[0,0,0,0,0,0,0,0,0,0,0,0,0,0,0],"sum_hessian":[5.27E3,2.641E3,2.629E3,7.96E2,1.845E3,3.2E2,2.309E3,1.72E2,6.24E2,2.01E2,1.644E3,7E1,2.5E2,2.241E3,6.8E1],"tree_param":{"num_deleted":"0","num_feature":"11","num_nodes":"15","size_leaf_vector":"1"}},{"base_weights":[3.515014E0,-8.792871E1,1.2135209E2,-2.3692496E2,-6.882222E1,1.3249864E2,-6.450195E2,-9.08142E0,-2.1148998E1,-8.310678E0,-1.6447258E0,3.7640495E0,1.16181965E1,-3.7042873E1,2.8015623E1],"categories":[],"categories_nodes":[],"categories_segments":[],"categories_sizes":[],"default_left":[0,0,0,0,0,0,0,0,0,0,0,0,0,0,0],"id":54,"left_children":[1,3,5,7,9,11,13,-1,-1,-1,-1,-1,-1,-1,-1],"loss_changes":[5.647409E7,8.384584E6,1.964756E7,3.369724E6,9.15154E6,1.2884852E7,4.227157E6,0E0,0E0,0E0,0E0,0E0,0E0,0E0,0E0],"parents":[2147483647,0,0,1,1,2,2,3,3,4,4,5,5,6,6],"right_children":[2,4,6,8,10,12,14,-1,-1,-1,-1,-1,-1,-1,-1],"split_conditions":[1.505024E2,1.7E1,2.085E1,1.21373E2,6.32826E1,1.989768E2,2.135E1,-9.08142E0,-2.1148998E1,-8.310678E0,-1.6447258E0,3.7640495E0,1.16181965E1,-3.7042873E1,2.8015623E1],"split_indices":[3,7,0,3,3,3,0,0,0,0,0,0,0,0,0],"split_type":[0,0,0,0,0,0,0,0,0,0,0,0,0,0,0],"sum_hessian":[5.239E3,2.95E3,2.289E3,3.34E2,2.616E3,2.257E3,3.2E1,2.59E2,7.5E1,7.04E2,1.912E3,1.436E3,8.21E2,3E1,2E0],"tree_param":{"num_deleted":"0","num_feature":"11","num_nodes":"15","size_leaf_vector":"1"}},{"base_weights":[-4.095233E0,-6.0105385E1,1.5206819E2,-8.901951E1,1.6563972E2,-2.5950412E2,2.0915341E2,-1.2824898E1,-3.2029045E0,-7.581946E0,1.1044586E1,-9.685387E0,-1.4423179E1,1.109112E1,-3.0266714E1],"categories":[],"categories_nodes":[],"categories_segments":[],"categories_sizes":[],"default_left":[0,0,0,0,0,0,0,0,0,0,0,0,0,0,0],"id":55,"left_children":[1,3,5,7,9,11,13,-1,-1,-1,-1,-1,-1,-1,-1],"loss_changes":[4.612194E7,2.5346888E7,3.2758894E7,1.4368668E7,7.76435E6,2.68045E5,1.2754076E7,0E0,0E0,0E0,0E0,0E0,0E0,0E0,0E0],"parents":[2147483647,0,0,1,1,2,2,3,3,4,4,5,5,6,6],"right_children":[2,4,6,8,10,12,14,-1,-1,-1,-1,-1,-1,-1,-1],"split_conditions":[1.80466E2,3E0,1E0,1E0,5.43956E1,1.94711E2,2.085E1,-1.2824898E1,-3.2029045E0,-7.581946E0,1.1044586E1,-9.685387E0,-1.4423179E1,1.109112E1,-3.0266714E1],"split_indices":[3,6,6,6,3,3,0,0,0,0,0,0,0,0,0],"split_type":[0,0,0,0,0,0,0,0,0,0,0,0,0,0,0],"sum_hessian":[5.271E3,3.88E3,1.391E3,3.44E3,4.4E2,1.69E2,1.222E3,4.45E2,2.995E3,6.5E1,3.75E2,5.4E1,1.15E2,1.204E3,1.8E1],"tree_param":{"num_deleted":"0","num_feature":"11","num_nodes":"15","size_leaf_vector":"1"}},{"base_weights":[8.0394274E-1,-1.4327812E2,1.8917646E1,7.108182E2,-1.5179317E2,2.6229092E1,-2.723695E2,5.549281E1,-2.9086008E0,-3.5004272E1,-7.1005335E0,5.1854787E0,-1.2043856E-2,-1.2188799E0,-1.8808195E1],"categories":[],"categories_nodes":[],"categories_segments":[],"categories_sizes":[],"default_left":[0,0,0,0,0,0,0,0,0,0,0,0,0,0,0],"id":56,"left_children":[1,3,5,7,9,11,13,-1,-1,-1,-1,-1,-1,-1,-1],"loss_changes":[1.378799E7,4.39877E6,1.0001966E7,1.9057008E6,3.038326E6,9.391123E6,2.95095E6,0E0,0E0,0E0,0E0,0E0,0E0,0E0,0E0],"parents":[2147483647,0,0,1,1,2,2,3,3,4,4,5,5,6,6],"right_children":[2,4,6,8,10,12,14,-1,-1,-1,-1,-1,-1,-1,-1],"split_conditions":[1.7E1,5.155E0,2.06E1,4.644733E-2,5.485E0,2.2E1,2.4937792E-2,5.549281E1,-2.9086008E0,-3.5004272E1,-7.1005335E0,5.1854787E0,-1.2043856E-2,-1.2188799E0,-1.8808195E1],"split_indices":[7,0,0,2,0,7,2,0,0,0,0,0,0,0,0],"split_type":[0,0,0,0,0,0,0,0,0,0,0,0,0,0,0],"sum_hessian":[5.281E3,5.89E2,4.692E3,5E0,5.84E2,4.578E3,1.14E2,3E0,2E0,9E0,5.75E2,1.165E3,3.413E3,3.4E1,8E1],"tree_param":{"num_deleted":"0","num_feature":"11","num_nodes":"15","size_leaf_vector":"1"}},{"base_weights":[8.6946535E0,-2.3893542E2,4.1406784E1,-1.3210156E2,-2.5224251E2,-1.1439721E2,1.06380684E2,-6.6677833E0,-1.1705528E0,-1.2746855E1,-5.6667056E0,-1.1769812E1,-4.098124E0,3.6556237E0,1.544501E1],"categories":[],"categories_nodes":[],"categories_segments":[],"categories_sizes":[],"default_left":[0,0,0,0,0,0,0,0,0,0,0,0,0,0,0],"id":57,"left_children":[1,3,5,7,9,11,13,-1,-1,-1,-1,-1,-1,-1,-1],"loss_changes":[4.193002E7,8.25352E5,4.6295404E7,6.283375E3,1.71736E5,5.263178E6,2.1719208E7,0E0,0E0,0E0,0E0,0E0,0E0,0E0,0E0],"parents":[2147483647,0,0,1,1,2,2,3,3,4,4,5,5,6,6],"right_children":[2,4,6,8,10,12,14,-1,-1,-1,-1,-1,-1,-1,-1],"split_conditions":[1E0,5.43956E1,1.005332E2,1.8625085E-1,2.596936E2,4.53718E1,2.27372E2,-6.6677833E0,-1.1705528E0,-1.2746855E1,-5.6667056E0,-1.1769812E1,-4.098124E0,3.6556237E0,1.544501E1],"split_indices":[6,3,3,2,3,3,3,0,0,0,0,0,0,0,0],"split_type":[0,0,0,0,0,0,0,0,0,0,0,0,0,0,0],"sum_hessian":[5.174E3,6.03E2,4.571E3,6.8E1,5.35E2,1.345E3,3.226E3,6.7E1,1E0,5.24E2,1.1E1,2.83E2,1.062E3,2.772E3,4.54E2],"tree_param":{"num_deleted":"0","num_feature":"11","num_nodes":"15","size_leaf_vector":"1"}},{"base_weights":[-7.5865893E0,-6.245838E1,1.3542912E2,-8.74239E1,1.3753018E2,-2.0852235E2,1.839635E2,-1.1457171E1,-3.3366497E0,1.1768306E0,1.5172129E1,-8.776973E0,-1.3259549E1,3.7724977E0,1.48856735E1],"categories":[],"categories_nodes":[],"categories_segments":[],"categories_sizes":[],"default_left":[0,0,0,0,0,0,0,0,0,0,0,0,0,0,0],"id":58,"left_children":[1,3,5,7,9,11,13,-1,-1,-1,-1,-1,-1,-1,-1],"loss_changes":[4.1545428E7,1.9114544E7,2.4544378E7,9.960408E6,8.0308605E6,2.936235E5,1.5863512E7,0E0,0E0,0E0,0E0,0E0,0E0,0E0,0E0],"parents":[2147483647,0,0,1,1,2,2,3,3,4,4,5,5,6,6],"right_children":[2,4,6,8,10,12,14,-1,-1,-1,-1,-1,-1,-1,-1],"split_conditions":[1.78566E2,3E0,1E0,1E0,1.218414E2,2.259404E2,2.5E1,-1.1457171E1,-3.3366497E0,1.1768306E0,1.5172129E1,-8.776973E0,-1.3259549E1,3.7724977E0,1.48856735E1],"split_indices":[3,6,6,6,3,3,7,0,0,0,0,0,0,0,0],"split_type":[0,0,0,0,0,0,0,0,0,0,0,0,0,0,0],"sum_hessian":[5.292E3,3.825E3,1.467E3,3.401E3,4.24E2,1.81E2,1.286E3,4.32E2,2.969E3,2.52E2,1.72E2,1.17E2,6.4E1,6.59E2,6.27E2],"tree_param":{"num_deleted":"0","num_feature":"11","num_nodes":"15","size_leaf_vector":"1"}},{"base_weights":[-9.119965E0,-4.1800236E1,2.082901E2,-1.358605E2,-5.2117987E0,1.8599097E2,7.5144684E2,-1.0642677E1,-5.513385E0,-9.201804E0,8.5374373E-1,-6.743731E0,1.1654226E1,1.64016E1,7.192245E1],"categories":[],"categories_nodes":[],"categories_segments":[],"categories_sizes":[],"default_left":[0,0,0,0,0,0,0,0,0,0,0,0,0,0,0],"id":59,"left_children":[1,3,5,7,9,11,13,-1,-1,-1,-1,-1,-1,-1,-1],"loss_changes":[3.767952E7,1.586469E7,8.253802E6,2.520406E6,1.3234664E7,1.0110274E7,7.382089E6,0E0,0E0,0E0,0E0,0E0,0E0,0E0,0E0],"parents":[2147483647,0,0,1,1,2,2,3,3,4,4,5,5,6,6],"right_children":[2,4,6,8,10,12,14,-1,-1,-1,-1,-1,-1,-1,-1],"split_conditions":[2.161166E2,9.1812E1,2.643226E2,4.53718E1,1.7E1,1.7E1,2E0,-1.0642677E1,-5.513385E0,-9.201804E0,8.5374373E-1,-6.743731E0,1.1654226E1,1.64016E1,7.192245E1],"split_indices":[3,3,3,3,7,7,5,0,0,0,0,0,0,0,0],"split_type":[0,0,0,0,0,0,0,0,0,0,0,0,0,0,0],"sum_hessian":[5.301E3,4.609E3,6.92E2,1.29E3,3.319E3,6.66E2,2.6E1,3.2E2,9.7E2,3.67E2,2.952E3,8.5E1,5.81E2,1.7E1,9E0],"tree_param":{"num_deleted":"0","num_feature":"11","num_nodes":"15","size_leaf_vector":"1"}},{"base_weights":[2.002062E0,-2.4993664E1,2.375928E2,-6.172792E1,1.736273E2,7.58357E1,3.8136295E2,-1.0484276E1,-1.9513534E0,-1.04230385E1,1.105236E1,-8.949901E-1,1.6302824E1,1.9923916E1,-4.5602608E1],"categories":[],"categories_nodes":[],"categories_segments":[],"categories_sizes":[],"default_left":[0,0,0,0,0,0,0,0,0,0,0,0,0,0,0],"id":60,"left_children":[1,3,5,7,9,11,13,-1,-1,-1,-1,-1,-1,-1,-1],"loss_changes":[3.3096724E7,3.407664E7,1.2412952E7,1.3228702E7,1.325452E7,5.939842E6,6.62828E6,0E0,0E0,0E0,0E0,0E0,0E0,0E0,0E0],"parents":[2147483647,0,0,1,1,2,2,3,3,4,4,5,5,6,6],"right_children":[2,4,6,8,10,12,14,-1,-1,-1,-1,-1,-1,-1,-1],"split_conditions":[3E0,2.083954E2,1.218414E2,1E0,1E0,7.838564E-2,2.630252E2,-1.0484276E1,-1.9513534E0,-1.04230385E1,1.105236E1,-8.949901E-1,1.6302824E1,1.9923916E1,-4.5602608E1],"split_indices":[6,3,3,6,6,2,3,0,0,0,0,0,0,0,0],"split_type":[0,0,0,0,0,0,0,0,0,0,0,0,0,0,0],"sum_hessian":[5.202E3,4.668E3,5.34E2,3.94E3,7.28E2,2.52E2,2.82E2,5.23E2,3.417E3,8E1,6.48E2,1.84E2,6.8E1,2.79E2,3E0],"tree_param":{"num_deleted":"0","num_feature":"11","num_nodes":"15","size_leaf_vector":"1"}},{"base_weights":[6.7591774E-3,-2.1527505E2,2.8317408E1,-1.0911692E2,-2.306634E2,-1.1360315E2,7.776445E1,-5.631139E0,8.6194944E-1,-1.1204947E1,-1.4997535E1,-1.0069887E1,-3.983672E0,2.0166125E0,1.099282E1],"categories":[],"categories_nodes":[],"categories_segments":[],"categories_sizes":[],"default_left":[0,0,0,0,0,0,0,0,0,0,0,0,0,0,0],"id":61,"left_children":[1,3,5,7,9,11,13,-1,-1,-1,-1,-1,-1,-1,-1],"loss_changes":[3.1936584E7,9.69694E5,3.2507114E7,3.6937312E4,1.74298E5,3.549631E6,1.8261256E7,0E0,0E0,0E0,0E0,0E0,0E0,0E0,0E0],"parents":[2147483647,0,0,1,1,2,2,3,3,4,4,5,5,6,6],"right_children":[2,4,6,8,10,12,14,-1,-1,-1,-1,-1,-1,-1,-1],"split_conditions":[1E0,5.6293E1,9.40462E1,1.8625085E-1,2.326958E2,4.67376E1,1.989768E2,-5.631139E0,8.6194944E-1,-1.1204947E1,-1.4997535E1,-1.0069887E1,-3.983672E0,2.0166125E0,1.099282E1],"split_indices":[6,3,3,2,3,3,3,0,0,0,0,0,0,0,0],"split_type":[0,0,0,0,0,0,0,0,0,0,0,0,0,0,0],"sum_hessian":[5.238E3,6.08E2,4.63E3,7.8E1,5.3E2,1.196E3,3.434E3,7.6E1,2E0,4.88E2,4.2E1,3.32E2,8.64E2,2.719E3,7.15E2],"tree_param":{"num_deleted":"0","num_feature":"11","num_nodes":"15","size_leaf_vector":"1"}},{"base_weights":[2.105605E0,-5.336904E1,1.1324411E2,-7.453394E1,1.191841E2,-1.8621217E2,1.5469655E2,-1.01123085E1,-2.786612E0,-3.9257238E0,1.0936446E1,-1.1985057E1,-7.217496E0,6.2317815E0,2.1581429E1],"categories":[],"categories_nodes":[],"categories_segments":[],"categories_sizes":[],"default_left":[0,0,0,0,0,0,0,0,0,0,0,0,0,0,0],"id":62,"left_children":[1,3,5,7,9,11,13,-1,-1,-1,-1,-1,-1,-1,-1],"loss_changes":[3.2368068E7,1.2798432E7,2.1727072E7,7.480494E6,7.554563E6,4.42342E5,1.2733144E7,0E0,0E0,0E0,0E0,0E0,0E0,0E0,0E0],"parents":[2147483647,0,0,1,1,2,2,3,3,4,4,5,5,6,6],"right_children":[2,4,6,8,10,12,14,-1,-1,-1,-1,-1,-1,-1,-1],"split_conditions":[1.685158E2,3E0,1E0,1E0,8.70198E1,7.035681E-2,3E0,-1.01123085E1,-2.786612E0,-3.9257238E0,1.0936446E1,-1.1985057E1,-7.217496E0,6.2317815E0,2.1581429E1],"split_indices":[3,6,6,6,3,2,6,0,0,0,0,0,0,0,0],"split_type":[0,0,0,0,0,0,0,0,0,0,0,0,0,0,0],"sum_hessian":[5.248E3,3.501E3,1.747E3,3.119E3,3.82E2,2.12E2,1.535E3,3.99E2,2.72E3,1.28E2,2.54E2,9.1E1,1.21E2,1.386E3,1.49E2],"tree_param":{"num_deleted":"0","num_feature":"11","num_nodes":"15","size_leaf_vector":"1"}},{"base_weights":[-7.939172E0,-3.2093204E1,2.0031516E2,-6.0641308E1,1.2185358E2,2.7453619E1,3.5387454E2,-9.406842E0,-2.0882814E0,-1.0861976E1,8.478984E0,1.9851235E0,-5.1142483E1,1.8292645E1,-4.5300865E1],"categories":[],"categories_nodes":[],"categories_segments":[],"categories_sizes":[],"default_left":[0,0,0,0,0,0,0,0,0,0,0,0,0,0,0],"id":63,"left_children":[1,3,5,7,9,11,13,-1,-1,-1,-1,-1,-1,-1,-1],"loss_changes":[2.6329372E7,2.0619418E7,1.4430496E7,9.514921E6,1.1915596E7,3.3469158E6,4.677792E6,0E0,0E0,0E0,0E0,0E0,0E0,0E0,0E0],"parents":[2147483647,0,0,1,1,2,2,3,3,4,4,5,5,6,6],"right_children":[2,4,6,8,10,12,14,-1,-1,-1,-1,-1,-1,-1,-1],"split_conditions":[3E0,2.053638E2,1.218414E2,1E0,1E0,1.21373E2,2.61191E2,-9.406842E0,-2.0882814E0,-1.0861976E1,8.478984E0,1.9851235E0,-5.1142483E1,1.8292645E1,-4.5300865E1],"split_indices":[6,3,3,6,6,3,3,0,0,0,0,0,0,0,0],"split_type":[0,0,0,0,0,0,0,0,0,0,0,0,0,0,0],"sum_hessian":[5.232E3,4.689E3,5.43E2,3.956E3,7.33E2,2.56E2,2.87E2,5.09E2,3.447E3,9E1,6.43E2,2.54E2,2E0,2.85E2,2E0],"tree_param":{"num_deleted":"0","num_feature":"11","num_nodes":"15","size_leaf_vector":"1"}},{"base_weights":[7.706472E0,-1.9948307E1,2.1916331E2,-5.0043167E1,2.3558942E2,1.8823318E2,9.9095654E2,-8.382976E0,-1.6405767E0,2.345495E0,1.8039217E1,-9.469035E0,1.1808393E1,2.6572489E1,8.930503E1],"categories":[],"categories_nodes":[],"categories_segments":[],"categories_sizes":[],"default_left":[0,0,0,0,0,0,0,0,0,0,0,0,0,0,0],"id":64,"left_children":[1,3,5,7,9,11,13,-1,-1,-1,-1,-1,-1,-1,-1],"loss_changes":[3.0488914E7,3.5472092E7,1.4208086E7,8.35675E6,1.1463226E7,1.0561284E7,7.454382E6,0E0,0E0,0E0,0E0,0E0,0E0,0E0,0E0],"parents":[2147483647,0,0,1,1,2,2,3,3,4,4,5,5,6,6],"right_children":[2,4,6,8,10,12,14,-1,-1,-1,-1,-1,-1,-1,-1],"split_conditions":[2.230404E2,3E0,2.643226E2,1E0,1.095228E2,1E0,2E0,-8.382976E0,-1.6405767E0,2.345495E0,1.8039217E1,-9.469035E0,1.1808393E1,2.6572489E1,8.930503E1],"split_indices":[3,6,3,6,3,6,5,0,0,0,0,0,0,0,0],"split_type":[0,0,0,0,0,0,0,0,0,0,0,0,0,0,0],"sum_hessian":[5.212E3,4.61E3,6.02E2,4.125E3,4.85E2,5.8E2,2.2E1,5.26E2,3.599E3,1.94E2,2.91E2,6.5E1,5.15E2,1.5E1,7E0],"tree_param":{"num_deleted":"0","num_feature":"11","num_nodes":"15","size_leaf_vector":"1"}},{"base_weights":[-3.2747524E0,-7.4418025E0,1.1498546E3,-9.204892E1,2.9467516E1,1.3314946E2,1.5034529E3,-8.120012E0,-2.9964483E0,-6.5547037E0,2.438063E0,5.8762245E1,-6.503472E1,8.174372E0,7.969756E1],"categories":[],"categories_nodes":[],"categories_segments":[],"categories_sizes":[],"default_left":[0,0,0,0,0,0,0,0,0,0,0,0,0,0,0],"id":65,"left_children":[1,3,5,7,9,11,13,-1,-1,-1,-1,-1,-1,-1,-1],"loss_changes":[2.535571E7,1.6419224E7,6.630412E6,3.598979E6,1.1347562E7,1.0493847E7,1.437114E6,0E0,0E0,0E0,0E0,0E0,0E0,0E0,0E0],"parents":[2147483647,0,0,1,1,2,2,3,3,4,4,5,5,6,6],"right_children":[2,4,6,8,10,12,14,-1,-1,-1,-1,-1,-1,-1,-1],"split_conditions":[2.643226E2,1.005332E2,6.865E0,5.13324E1,1.7E1,7.46272E-2,1E0,-8.120012E0,-2.9964483E0,-6.5547037E0,2.438063E0,5.8762245E1,-6.503472E1,8.174372E0,7.969756E1],"split_indices":[3,3,0,3,7,2,9,0,0,0,0,0,0,0,0],"split_type":[0,0,0,0,0,0,0,0,0,0,0,0,0,0,0],"sum_hessian":[5.274E3,5.256E3,1.8E1,1.596E3,3.66E3,5E0,1.3E1,4.99E2,1.097E3,3.92E2,3.268E3,3E0,2E0,1E0,1.2E1],"tree_param":{"num_deleted":"0","num_feature":"11","num_nodes":"15","size_leaf_vector":"1"}},{"base_weights":[-1.368351E1,-3.4324856E1,1.6474173E2,-6.0667835E1,1.0406487E2,-2.1853232E2,1.9629178E2,-8.25361E0,-2.2378E0,-1.035139E1,7.4040475E0,-1.2409922E1,-3.071326E0,8.676972E0,3.696795E1],"categories":[],"categories_nodes":[],"categories_segments":[],"categories_sizes":[],"default_left":[0,0,0,0,0,0,0,0,0,0,0,0,0,0,0],"id":66,"left_children":[1,3,5,7,9,11,13,-1,-1,-1,-1,-1,-1,-1,-1],"loss_changes":[1.9392634E7,1.7209892E7,6.645297E6,6.57953E6,1.0368931E7,1.8050438E5,6.111498E6,0E0,0E0,0E0,0E0,0E0,0E0,0E0,0E0],"parents":[2147483647,0,0,1,1,2,2,3,3,4,4,5,5,6,6],"right_children":[2,4,6,8,10,12,14,-1,-1,-1,-1,-1,-1,-1,-1],"split_conditions":[3E0,2.053638E2,4.6006E1,1E0,1E0,1E0,1.5679778E-1,-8.25361E0,-2.2378E0,-1.035139E1,7.4040475E0,-1.2409922E1,-3.071326E0,8.676972E0,3.696795E1],"split_indices":[6,3,3,6,6,8,2,0,0,0,0,0,0,0,0],"split_type":[0,0,0,0,0,0,0,0,0,0,0,0,0,0,0],"sum_hessian":[5.263E3,4.718E3,5.45E2,3.964E3,7.54E2,4.1E1,5.04E2,5.23E2,3.441E3,9.3E1,6.61E2,3.4E1,7E0,4.85E2,1.9E1],"tree_param":{"num_deleted":"0","num_feature":"11","num_nodes":"15","size_leaf_vector":"1"}},{"base_weights":[6.889299E0,-1.11046036E2,3.51497E1,-1.7622882E2,-7.910516E1,-1.15933266E2,5.3424297E1,-6.1124554E0,-1.0796408E1,-3.5129802E0,-1.9180258E1,-1.0286397E1,6.1744432E0,6.059591E-1,6.6993637E0],"categories":[],"categories_nodes":[],"categories_segments":[],"categories_sizes":[],"default_left":[0,0,0,0,0,0,0,0,0,0,0,0,0,0,0],"id":67,"left_children":[1,3,5,7,9,11,13,-1,-1,-1,-1,-1,-1,-1,-1],"loss_changes":[1.7448302E7,2.093037E6,1.1665814E7,6.85065E5,1.8073025E6,9.828873E6,1.2537008E7,0E0,0E0,0E0,0E0,0E0,0E0,0E0,0E0],"parents":[2147483647,0,0,1,1,2,2,3,3,4,4,5,5,6,6],"right_children":[2,4,6,8,10,12,14,-1,-1,-1,-1,-1,-1,-1,-1],"split_conditions":[8.12618E1,4.53718E1,1.7E1,1E0,7.98644E1,8.1290364E-2,1.78566E2,-6.1124554E0,-1.0796408E1,-3.5129802E0,-1.9180258E1,-1.0286397E1,6.1744432E0,6.059591E-1,6.6993637E0],"split_indices":[3,3,7,9,3,2,3,0,0,0,0,0,0,0,0],"split_type":[0,0,0,0,0,0,0,0,0,0,0,0,0,0,0],"sum_hessian":[5.233E3,1.011E3,4.222E3,3.31E2,6.8E2,4.55E2,3.767E3,1.42E2,1.89E2,6.62E2,1.8E1,3.31E2,1.24E2,2.491E3,1.276E3],"tree_param":{"num_deleted":"0","num_feature":"11","num_nodes":"15","size_leaf_vector":"1"}},{"base_weights":[6.2415605E0,-1.397191E1,1.864633E2,-1.580306E2,7.80085E0,5.2355095E1,3.348458E2,-2.797037E0,-8.624213E0,-2.4898913E0,3.9230092E0,3.4633904E0,-3.0615192E1,1.9673132E1,-7.1977077E0],"categories":[],"categories_nodes":[],"categories_segments":[],"categories_sizes":[],"default_left":[0,0,0,0,0,0,0,0,0,0,0,0,0,0,0],"id":68,"left_children":[1,3,5,7,9,11,13,-1,-1,-1,-1,-1,-1,-1,-1],"loss_changes":[1.9036794E7,1.4739906E7,1.0469408E7,9.0078E5,1.6621244E7,3.167462E6,7.073074E6,0E0,0E0,0E0,0E0,0E0,0E0,0E0,0E0],"parents":[2147483647,0,0,1,1,2,2,3,3,4,4,5,5,6,6],"right_children":[2,4,6,8,10,12,14,-1,-1,-1,-1,-1,-1,-1,-1],"split_conditions":[3E0,1E0,1.309968E2,5.6293E1,1.500734E2,1.273336E2,2.358248E2,-2.797037E0,-8.624213E0,-2.4898913E0,3.9230092E0,3.4633904E0,-3.0615192E1,1.9673132E1,-7.1977077E0],"split_indices":[6,6,3,3,3,3,3,0,0,0,0,0,0,0,0],"split_type":[0,0,0,0,0,0,0,0,0,0,0,0,0,0,0],"sum_hessian":[5.224E3,4.698E3,5.26E2,6.16E2,4.082E3,2.77E2,2.49E2,7.7E1,5.39E2,2.249E3,1.833E3,2.71E2,6E0,2.22E2,2.7E1],"tree_param":{"num_deleted":"0","num_feature":"11","num_nodes":"15","size_leaf_vector":"1"}},{"base_weights":[-1.798635E0,-1.550737E2,1.896912E1,-5.0699253E1,-1.6978372E2,-5.981997E1,6.621428E1,-1.647439E0,-4.3861165E0,-8.650846E0,-5.205532E-1,-7.5664926E0,-1.4623706E0,3.8993974E0,-1.6701855E1],"categories":[],"categories_nodes":[],"categories_segments":[],"categories_sizes":[],"default_left":[0,0,0,0,0,0,0,0,0,0,0,0,0,0,0],"id":69,"left_children":[1,3,5,7,9,11,13,-1,-1,-1,-1,-1,-1,-1,-1],"loss_changes":[1.6752828E7,9.55593E5,1.72573E7,4.902667E4,2.81603E5,4.8579615E6,1.3682663E7,0E0,0E0,0E0,0E0,0E0,0E0,0E0,0E0],"parents":[2147483647,0,0,1,1,2,2,3,3,4,4,5,5,6,6],"right_children":[2,4,6,8,10,12,14,-1,-1,-1,-1,-1,-1,-1,-1],"split_conditions":[1E0,5.6293E1,1.129176E2,4.95376E1,2.075E1,5.13324E1,2.07E1,-1.647439E0,-4.3861165E0,-8.650846E0,-5.205532E-1,-7.5664926E0,-1.4623706E0,3.8993974E0,-1.6701855E1],"split_indices":[6,3,3,3,0,3,0,0,0,0,0,0,0,0,0],"split_type":[0,0,0,0,0,0,0,0,0,0,0,0,0,0,0],"sum_hessian":[5.261E3,6.27E2,4.634E3,7.8E1,5.49E2,1.737E3,2.897E3,5.4E1,2.4E1,5.38E2,1.1E1,4.34E2,1.303E3,2.815E3,8.2E1],"tree_param":{"num_deleted":"0","num_feature":"11","num_nodes":"15","size_leaf_vector":"1"}},{"base_weights":[9.646524E0,-4.7831932E1,6.508094E1,-1.0929437E2,-1.7753363E1,7.87657E1,-3.9287088E2,-6.2266154E0,-1.9520607E0,-4.1844407E-1,-7.540303E0,2.3417036E1,3.6681137E0,-2.1143698E1,4.718405E1],"categories":[],"categories_nodes":[],"categories_segments":[],"categories_sizes":[],"default_left":[0,0,0,0,0,0,0,0,0,0,0,0,0,0,0],"id":70,"left_children":[1,3,5,7,9,11,13,-1,-1,-1,-1,-1,-1,-1,-1],"loss_changes":[1.6574979E7,4.7196455E6,1.6625861E7,8.93298E5,2.141388E6,5.379803E6,3.486809E6,0E0,0E0,0E0,0E0,0E0,0E0,0E0,0E0],"parents":[2147483647,0,0,1,1,2,2,3,3,4,4,5,5,6,6],"right_children":[2,4,6,8,10,12,14,-1,-1,-1,-1,-1,-1,-1,-1],"split_conditions":[1.344942E2,6.57826E1,2.07E1,3.9E1,1E0,5.405E0,2.135E1,-6.2266154E0,-1.9520607E0,-4.1844407E-1,-7.540303E0,2.3417036E1,3.6681137E0,-2.1143698E1,4.718405E1],"split_indices":[3,3,0,7,8,0,0,0,0,0,0,0,0,0,0],"split_type":[0,0,0,0,0,0,0,0,0,0,0,0,0,0,0],"sum_hessian":[5.2E3,2.553E3,2.647E3,8.38E2,1.715E3,2.571E3,7.6E1,6.88E2,1.5E2,1.603E3,1.12E2,3.4E1,2.537E3,7.5E1,1E0],"tree_param":{"num_deleted":"0","num_feature":"11","num_nodes":"15","size_leaf_vector":"1"}},{"base_weights":[7.935084E-2,-1.517081E2,1.9550135E1,-3.4903004E1,-1.6542311E2,-1.0246993E2,4.964144E1,-3.0098808E0,-4.6586138E-1,-7.803735E0,-1.3426967E1,-9.3960905E0,-3.8947587E0,1.7327927E0,1.3431856E1],"categories":[],"categories_nodes":[],"categories_segments":[],"categories_sizes":[],"default_left":[0,0,0,0,0,0,0,0,0,0,0,0,0,0,0],"id":71,"left_children":[1,3,5,7,9,11,13,-1,-1,-1,-1,-1,-1,-1,-1],"loss_changes":[1.5518924E7,9.50611E5,1.709338E7,4.0858797E4,4.7285E5,1.919425E6,1.224485E7,0E0,0E0,0E0,0E0,0E0,0E0,0E0,0E0],"parents":[2147483647,0,0,1,1,2,2,3,3,4,4,5,5,6,6],"right_children":[2,4,6,8,10,12,14,-1,-1,-1,-1,-1,-1,-1,-1],"split_conditions":[1E0,5.43956E1,8.32224E1,8.076585E-2,2.336932E2,4.11454E1,2.48175E2,-3.0098808E0,-4.6586138E-1,-7.803735E0,-1.3426967E1,-9.3960905E0,-3.8947587E0,1.7327927E0,1.3431856E1],"split_indices":[6,3,3,2,3,3,3,0,0,0,0,0,0,0,0],"split_type":[0,0,0,0,0,0,0,0,0,0,0,0,0,0,0],"sum_hessian":[5.249E3,5.96E2,4.653E3,6.3E1,5.33E2,9.2E2,3.733E3,3.1E1,3.2E1,4.91E2,4.2E1,2.04E2,7.16E2,3.495E3,2.38E2],"tree_param":{"num_deleted":"0","num_feature":"11","num_nodes":"15","size_leaf_vector":"1"}},{"base_weights":[-8.584094E0,-2.7384632E1,1.6056526E2,-9.584721E0,-1.5521776E2,1.8850876E2,-1.1359245E2,-6.9299965E0,6.231408E-1,3.4809654E1,-8.195384E0,6.143555E0,1.0340179E1,-8.313106E0,1.915764E1],"categories":[],"categories_nodes":[],"categories_segments":[],"categories_sizes":[],"default_left":[0,0,0,0,0,0,0,0,0,0,0,0,0,0,0],"id":72,"left_children":[1,3,5,7,9,11,13,-1,-1,-1,-1,-1,-1,-1,-1],"loss_changes":[1.6626774E7,1.0704356E7,4.028079E6,1.1752223E7,4.368352E6,5.44984E5,1.3457101E6,0E0,0E0,0E0,0E0,0E0,0E0,0E0,0E0],"parents":[2147483647,0,0,1,1,2,2,3,3,4,4,5,5,6,6],"right_children":[2,4,6,8,10,12,14,-1,-1,-1,-1,-1,-1,-1,-1],"split_conditions":[3E0,2E0,1E0,1E0,5.155E0,1E0,1E0,-6.9299965E0,6.231408E-1,3.4809654E1,-8.195384E0,6.143555E0,1.0340179E1,-8.313106E0,1.915764E1],"split_indices":[6,6,8,6,0,9,1,0,0,0,0,0,0,0,0],"split_type":[0,0,0,0,0,0,0,0,0,0,0,0,0,0,0],"sum_hessian":[5.226E3,4.704E3,5.22E2,4.13E3,5.74E2,4.74E2,4.8E1,6.02E2,3.528E3,5E0,5.69E2,1.05E2,3.69E2,4.4E1,4E0],"tree_param":{"num_deleted":"0","num_feature":"11","num_nodes":"15","size_leaf_vector":"1"}},{"base_weights":[-1.1262301E1,-3.0746826E1,1.6212701E2,-4.5675274E1,6.751751E1,9.597122E1,2.996805E2,-2.0564315E0,-1.951363E1,-5.367882E-1,9.091738E0,6.340674E0,-1.1672778E1,2.1172205E1,8.463303E-3],"categories":[],"categories_nodes":[],"categories_segments":[],"categories_sizes":[],"default_left":[0,0,0,0,0,0,0,0,0,0,0,0,0,0,0],"id":73,"left_children":[1,3,5,7,9,11,13,-1,-1,-1,-1,-1,-1,-1,-1],"loss_changes":[1.765717E7,6.8947405E6,4.776018E6,6.374767E6,5.5482845E6,3.66698E6,6.338656E6,0E0,0E0,0E0,0E0,0E0,0E0,0E0,0E0],"parents":[2147483647,0,0,1,1,2,2,3,3,4,4,5,5,6,6],"right_children":[2,4,6,8,10,12,14,-1,-1,-1,-1,-1,-1,-1,-1],"split_conditions":[3E0,2.161166E2,1.610578E2,2.085E1,1.4E1,1.531998E2,2.099928E2,-2.0564315E0,-1.951363E1,-5.367882E-1,9.091738E0,6.340674E0,-1.1672778E1,2.1172205E1,8.463303E-3],"split_indices":[6,3,3,0,0,3,3,0,0,0,0,0,0,0,0],"split_type":[0,0,0,0,0,0,0,0,0,0,0,0,0,0,0],"sum_hessian":[5.224E3,4.697E3,5.27E2,4.078E3,6.19E2,3.57E2,1.7E2,4.026E3,5.2E1,3.68E2,2.51E2,3.27E2,3E1,1.2E2,5E1],"tree_param":{"num_deleted":"0","num_feature":"11","num_nodes":"15","size_leaf_vector":"1"}},{"base_weights":[7.0250195E-1,-1.758684E1,1.7269334E2,-3.1956411E1,1.0404569E2,8.826357E1,4.519283E2,1.0332525E1,-1.8820391E0,2.4563081E0,2.2398685E1,1.1514739E1,-2.4954717E0,3.9595127E1,1.6279676E1],"categories":[],"categories_nodes":[],"categories_segments":[],"categories_sizes":[],"default_left":[0,0,0,0,0,0,0,0,0,0,0,0,0,0,0],"id":74,"left_children":[1,3,5,7,9,11,13,-1,-1,-1,-1,-1,-1,-1,-1],"loss_changes":[1.6526871E7,8.303663E6,1.1865864E7,5.7694665E6,9.459952E6,7.645572E6,4.767378E6,0E0,0E0,0E0,0E0,0E0,0E0,0E0,0E0],"parents":[2147483647,0,0,1,1,2,2,3,3,4,4,5,5,6,6],"right_children":[2,4,6,8,10,12,14,-1,-1,-1,-1,-1,-1,-1,-1],"split_conditions":[2.285668E2,3E0,1.685E1,5.485E0,1.819608E2,1.23E1,1.77E1,1.0332525E1,-1.8820391E0,2.4563081E0,2.2398685E1,1.1514739E1,-2.4954717E0,3.9595127E1,1.6279676E1],"split_indices":[3,6,0,0,3,0,0,0,0,0,0,0,0,0,0],"split_type":[0,0,0,0,0,0,0,0,0,0,0,0,0,0,0],"sum_hessian":[5.252E3,4.748E3,5.04E2,4.247E3,5.01E2,3.88E2,1.16E2,9.8E1,4.149E3,4.33E2,6.8E1,1.91E2,1.97E2,3E1,8.6E1],"tree_param":{"num_deleted":"0","num_feature":"11","num_nodes":"15","size_leaf_vector":"1"}},{"base_weights":[-1.5764357E0,-1.2485883E2,1.4409855E1,-1.3883942E2,-8.084542E1,-1.09378265E2,3.2460014E1,-5.2143416E0,-7.48771E0,1.1876934E1,-4.3416915E0,-7.501535E0,6.933733E-1,2.4252403E0,-5.7355876E0],"categories":[],"categories_nodes":[],"categories_segments":[],"categories_sizes":[],"default_left":[0,0,0,0,0,0,0,0,0,0,0,0,0,0,0],"id":75,"left_children":[1,3,5,7,9,11,13,-1,-1,-1,-1,-1,-1,-1,-1],"loss_changes":[1.0370326E7,3.60437E5,1.0411363E7,1.56732E5,3.0280506E5,2.9731525E6,9.606773E6,0E0,0E0,0E0,0E0,0E0,0E0,0E0,0E0],"parents":[2147483647,0,0,1,1,2,2,3,3,4,4,5,5,6,6],"right_children":[2,4,6,8,10,12,14,-1,-1,-1,-1,-1,-1,-1,-1],"split_conditions":[1E0,1.335E1,1.7E1,4.0172078E-2,1.35E1,8.816538E-2,1.92E1,-5.2143416E0,-7.48771E0,1.1876934E1,-4.3416915E0,-7.501535E0,6.933733E-1,2.4252403E0,-5.7355876E0],"split_indices":[6,0,7,2,0,2,0,0,0,0,0,0,0,0,0],"split_type":[0,0,0,0,0,0,0,0,0,0,0,0,0,0,0],"sum_hessian":[5.26E3,6.03E2,4.657E3,4.56E2,1.47E2,5.92E2,4.065E3,1.12E2,3.44E2,2E0,1.45E2,4.45E2,1.47E2,3.666E3,3.99E2],"tree_param":{"num_deleted":"0","num_feature":"11","num_nodes":"15","size_leaf_vector":"1"}},{"base_weights":[8.917013E-1,-1.26695076E2,1.7726635E1,-1.4310582E2,-1.1071297E2,-1.2314528E2,3.7665123E1,-7.5559564E0,-4.183426E0,-3.976249E0,-6.2255764E0,-8.907949E0,1.182021E0,2.064023E0,-1.4080886E1],"categories":[],"categories_nodes":[],"categories_segments":[],"categories_sizes":[],"default_left":[0,0,0,0,0,0,0,0,0,0,0,0,0,0,0],"id":76,"left_children":[1,3,5,7,9,11,13,-1,-1,-1,-1,-1,-1,-1,-1],"loss_changes":[1.1369012E7,1.45982E5,1.3138461E7,1.30719E5,1.26519E5,4.687841E6,4.740854E6,0E0,0E0,0E0,0E0,0E0,0E0,0E0,0E0],"parents":[2147483647,0,0,1,1,2,2,3,3,4,4,5,5,6,6],"right_children":[2,4,6,8,10,12,14,-1,-1,-1,-1,-1,-1,-1,-1],"split_conditions":[1E0,2E0,1.7E1,1.603713E-1,1E0,8.1290364E-2,2.085E1,-7.5559564E0,-4.183426E0,-3.976249E0,-6.2255764E0,-8.907949E0,1.182021E0,2.064023E0,-1.4080886E1],"split_indices":[6,4,7,2,9,2,0,0,0,0,0,0,0,0,0],"split_type":[0,0,0,0,0,0,0,0,0,0,0,0,0,0,0],"sum_hessian":[5.291E3,6.16E2,4.675E3,3E2,3.16E2,5.79E2,4.096E3,2.63E2,3.7E1,9.9E1,2.17E2,4.21E2,1.58E2,4.051E3,4.5E1],"tree_param":{"num_deleted":"0","num_feature":"11","num_nodes":"15","size_leaf_vector":"1"}},{"base_weights":[2.5798624E0,-1.521661E1,1.742303E2,-3.1611769E1,1.1628789E2,-1.8063965E2,2.1696855E2,1.0723827E1,-1.8535674E0,-5.893646E-1,1.05551405E1,-1.08804655E1,-3.6237965E0,-1.3477106E1,1.261481E1],"categories":[],"categories_nodes":[],"categories_segments":[],"categories_sizes":[],"default_left":[0,0,0,0,0,0,0,0,0,0,0,0,0,0,0],"id":77,"left_children":[1,3,5,7,9,11,13,-1,-1,-1,-1,-1,-1,-1,-1],"loss_changes":[1.5869139E7,1.0152143E7,7.440454E6,5.632002E6,6.3413635E6,1.9616375E5,7.561658E6,0E0,0E0,0E0,0E0,0E0,0E0,0E0,0E0],"parents":[2147483647,0,0,1,1,2,2,3,3,4,4,5,5,6,6],"right_children":[2,4,6,8,10,12,14,-1,-1,-1,-1,-1,-1,-1,-1],"split_conditions":[2.297984E2,3E0,1E0,5.485E0,1.095228E2,1.385E1,6.59E0,1.0723827E1,-1.8535674E0,-5.893646E-1,1.05551405E1,-1.08804655E1,-3.6237965E0,-1.3477106E1,1.261481E1],"split_indices":[3,6,6,0,3,0,0,0,0,0,0,0,0,0,0],"split_type":[0,0,0,0,0,0,0,0,0,0,0,0,0,0,0],"sum_hessian":[5.193E3,4.706E3,4.87E2,4.185E3,5.21E2,5.2E1,4.35E2,9E1,4.095E3,2.22E2,2.99E2,3.8E1,1.4E1,2.9E1,4.06E2],"tree_param":{"num_deleted":"0","num_feature":"11","num_nodes":"15","size_leaf_vector":"1"}},{"base_weights":[8.609725E0,-2.4337112E1,7.691947E1,-9.362046E1,-4.630294E0,8.955017E1,-4.0077637E2,-6.7540336E0,-3.1250706E0,-5.6933904E0,4.0306208E-1,2.1071201E1,3.8628178E0,-2.7234915E1,1.5747977E1],"categories":[],"categories_nodes":[],"categories_segments":[],"categories_sizes":[],"default_left":[0,0,0,0,0,0,0,0,0,0,0,0,0,0,0],"id":78,"left_children":[1,3,5,7,9,11,13,-1,-1,-1,-1,-1,-1,-1,-1],"loss_changes":[1.1765707E7,4.815171E6,1.0299098E7,9.992055E5,3.809336E6,6.732079E6,4.704002E6,0E0,0E0,0E0,0E0,0E0,0E0,0E0,0E0],"parents":[2147483647,0,0,1,1,2,2,3,3,4,4,5,5,6,6],"right_children":[2,4,6,8,10,12,14,-1,-1,-1,-1,-1,-1,-1,-1],"split_conditions":[1.711422E2,6.25536E1,2.07E1,4.53718E1,1.7E1,1.729422E2,2.161166E2,-6.7540336E0,-3.1250706E0,-5.6933904E0,4.0306208E-1,2.1071201E1,3.8628178E0,-2.7234915E1,1.5747977E1],"split_indices":[3,3,0,3,7,3,3,0,0,0,0,0,0,0,0],"split_type":[0,0,0,0,0,0,0,0,0,0,0,0,0,0,0],"sum_hessian":[5.226E3,3.526E3,1.7E3,7.8E2,2.746E3,1.657E3,4.3E1,3.33E2,4.47E2,2.85E2,2.461E3,5.8E1,1.599E3,3.6E1,7E0],"tree_param":{"num_deleted":"0","num_feature":"11","num_nodes":"15","size_leaf_vector":"1"}},{"base_weights":[2.89794E0,-8.8925255E1,2.2219421E1,-7.72473E1,-1.837056E2,-9.290902E1,3.679792E1,-5.2936172E0,-1.8776728E0,2.526351E0,-1.1006192E1,-7.919671E0,5.3813334E0,5.211992E0,7.0968616E-1],"categories":[],"categories_nodes":[],"categories_segments":[],"categories_sizes":[],"default_left":[0,0,0,0,0,0,0,0,0,0,0,0,0,0,0],"id":79,"left_children":[1,3,5,7,9,11,13,-1,-1,-1,-1,-1,-1,-1,-1],"loss_changes":[9.18503E6,9.81966E5,7.1819355E6,9.084235E5,8.470955E5,6.3335195E6,5.786936E6,0E0,0E0,0E0,0E0,0E0,0E0,0E0,0E0],"parents":[2147483647,0,0,1,1,2,2,3,3,4,4,5,5,6,6],"right_children":[2,4,6,8,10,12,14,-1,-1,-1,-1,-1,-1,-1,-1],"split_conditions":[7.62012E1,3E0,1.7E1,5.33298E1,1.2198395E-2,8.816538E-2,2.2E1,-5.2936172E0,-1.8776728E0,2.526351E0,-1.1006192E1,-7.919671E0,5.3813334E0,5.211992E0,7.0968616E-1],"split_indices":[3,4,7,3,2,2,7,0,0,0,0,0,0,0,0],"split_type":[0,0,0,0,0,0,0,0,0,0,0,0,0,0,0],"sum_hessian":[5.175E3,8.99E2,4.276E3,8.02E2,9.7E1,4.8E2,3.796E3,4.65E2,3.37E2,1.3E1,8.4E1,3.62E2,1.18E2,9.52E2,2.844E3],"tree_param":{"num_deleted":"0","num_feature":"11","num_nodes":"15","size_leaf_vector":"1"}},{"base_weights":[-1.7482759E0,-1.7482637E1,1.3551768E2,-1.1698322E2,-2.8303761E0,1.6442682E2,-1.1818568E1,-5.9974685E0,2.745077E0,1.8165326E-1,-1.1527841E1,5.9982657E0,2.3002981E1,-3.490693E1,5.6560187E0],"categories":[],"categories_nodes":[],"categories_segments":[],"categories_sizes":[],"default_left":[0,0,0,0,0,0,0,0,0,0,0,0,0,0,0],"id":80,"left_children":[1,3,5,7,9,11,13,-1,-1,-1,-1,-1,-1,-1,-1],"loss_changes":[1.1403913E7,6.905782E6,2.314778E6,3.165645E5,6.0797705E6,5.912314E6,7.796302E6,0E0,0E0,0E0,0E0,0E0,0E0,0E0,0E0],"parents":[2147483647,0,0,1,1,2,2,3,3,4,4,5,5,6,6],"right_children":[2,4,6,8,10,12,14,-1,-1,-1,-1,-1,-1,-1,-1],"split_conditions":[3E0,1E0,1.0465834E-1,2.07E1,2.07E1,7.899929E-2,1.1402213E-1,-5.9974685E0,2.745077E0,1.8165326E-1,-1.1527841E1,5.9982657E0,2.3002981E1,-3.490693E1,5.6560187E0],"split_indices":[6,6,2,0,0,2,2,0,0,0,0,0,0,0,0],"split_type":[0,0,0,0,0,0,0,0,0,0,0,0,0,0,0],"sum_hessian":[5.278E3,4.736E3,5.42E2,6.07E2,4.129E3,4.53E2,8.9E1,5.97E2,1E1,4.016E3,1.13E2,3.95E2,5.8E1,1.3E1,7.6E1],"tree_param":{"num_deleted":"0","num_feature":"11","num_nodes":"15","size_leaf_vector":"1"}},{"base_weights":[1.7876956E0,-1.3246986E1,1.3446964E2,-1.0150222E2,8.399732E-3,-1.1330514E2,1.8383546E2,-3.7780397E0,-5.4919715E0,2.547798E-1,-1.304277E1,-1.1534933E1,5.878157E0,8.123489E0,2.6984938E1],"categories":[],"categories_nodes":[],"categories_segments":[],"categories_sizes":[],"default_left":[0,0,0,0,0,0,0,0,0,0,0,0,0,0,0],"id":81,"left_children":[1,3,5,7,9,11,13,-1,-1,-1,-1,-1,-1,-1,-1],"loss_changes":[1.0544463E7,5.554483E6,6.601434E6,1.25793E5,5.4807815E6,2.4663412E6,3.32618E6,0E0,0E0,0E0,0E0,0E0,0E0,0E0,0E0],"parents":[2147483647,0,0,1,1,2,2,3,3,4,4,5,5,6,6],"right_children":[2,4,6,8,10,12,14,-1,-1,-1,-1,-1,-1,-1,-1],"split_conditions":[3E0,1E0,1.7295906E-2,4.0172078E-2,2.075E1,1E0,1.5028599E-1,-3.7780397E0,-5.4919715E0,2.547798E-1,-1.304277E1,-1.1534933E1,5.878157E0,8.123489E0,2.6984938E1],"split_indices":[6,6,2,2,0,1,2,0,0,0,0,0,0,0,0],"split_type":[0,0,0,0,0,0,0,0,0,0,0,0,0,0,0],"sum_hessian":[5.284E3,4.747E3,5.37E2,6.19E2,4.128E3,8.9E1,4.48E2,1.53E2,4.66E2,4.05E3,7.8E1,5.9E1,3E1,4.24E2,2.4E1],"tree_param":{"num_deleted":"0","num_feature":"11","num_nodes":"15","size_leaf_vector":"1"}},{"base_weights":[4.2636313E0,-1.3530274E1,1.0425054E2,-7.5488534E0,-2.9646045E2,2.1679019E2,-4.413276E1,-6.0415726E0,3.275633E-1,-2.348814E1,1.219355E1,7.8221164E0,3.0703556E1,-5.4808617E-1,-2.6306112E1],"categories":[],"categories_nodes":[],"categories_segments":[],"categories_sizes":[],"default_left":[0,0,0,0,0,0,0,0,0,0,0,0,0,0,0],"id":82,"left_children":[1,3,5,7,9,11,13,-1,-1,-1,-1,-1,-1,-1,-1],"loss_changes":[9.315301E6,7.520145E6,1.3218479E7,6.9554275E6,8.729508E6,1.0692712E7,5.4621595E6,0E0,0E0,0E0,0E0,0E0,0E0,0E0,0E0],"parents":[2147483647,0,0,1,1,2,2,3,3,4,4,5,5,6,6],"right_children":[2,4,6,8,10,12,14,-1,-1,-1,-1,-1,-1,-1,-1],"split_conditions":[2.053638E2,1.969768E2,6.729025E-2,1.7E1,9.0850115E-2,2.58062E2,2.630252E2,-6.0415726E0,3.275633E-1,-2.348814E1,1.219355E1,7.8221164E0,3.0703556E1,-5.4808617E-1,-2.6306112E1],"split_indices":[3,3,2,7,2,3,3,0,0,0,0,0,0,0,0],"split_type":[0,0,0,0,0,0,0,0,0,0,0,0,0,0,0],"sum_hessian":[5.234E3,4.444E3,7.9E2,4.353E3,9.1E1,4.49E2,3.41E2,4.81E2,3.872E3,6.9E1,2.2E1,3.91E2,5.8E1,3.2E2,2.1E1],"tree_param":{"num_deleted":"0","num_feature":"11","num_nodes":"15","size_leaf_vector":"1"}},{"base_weights":[-1.32935095E1,-1.5747825E1,6.991964E2,-1.1060338E2,-2.9154916E0,-4.4730383E2,9.583167E2,-6.927815E-1,-6.488855E0,-3.4771218E0,1.1483968E0,6.8091674E0,-3.4359703E1,6.784702E1,6.7112246E0],"categories":[],"categories_nodes":[],"categories_segments":[],"categories_sizes":[],"default_left":[0,0,0,0,0,0,0,0,0,0,0,0,0,0,0],"id":83,"left_children":[1,3,5,7,9,11,13,-1,-1,-1,-1,-1,-1,-1,-1],"loss_changes":[9.168822E6,6.353556E6,5.776126E6,1.1520215E6,7.932728E6,6.5347575E5,4.745405E6,0E0,0E0,0E0,0E0,0E0,0E0,0E0,0E0],"parents":[2147483647,0,0,1,1,2,2,3,3,4,4,5,5,6,6],"right_children":[2,4,6,8,10,12,14,-1,-1,-1,-1,-1,-1,-1,-1],"split_conditions":[2.643226E2,1E0,1E0,7.3738E1,9.86726E1,6.9653586E-2,7.603638E-2,-6.927815E-1,-6.488855E0,-3.4771218E0,1.1483968E0,6.8091674E0,-3.4359703E1,6.784702E1,6.7112246E0],"split_indices":[3,6,9,3,3,2,2,0,0,0,0,0,0,0,0],"split_type":[0,0,0,0,0,0,0,0,0,0,0,0,0,0,0],"sum_hessian":[5.236E3,5.219E3,1.7E1,6.21E2,4.598E3,3E0,1.4E1,1.03E2,5.18E2,1.286E3,3.312E3,1E0,2E0,9E0,5E0],"tree_param":{"num_deleted":"0","num_feature":"11","num_nodes":"15","size_leaf_vector":"1"}},{"base_weights":[7.0647907E0,-2.268672E1,9.6957634E1,-3.5006893E1,7.4554214E1,-1.2015935E2,1.2704341E2,7.8777766E0,-1.962402E0,4.184274E0,-6.417313E1,-4.8693004E0,-8.593558E0,2.7852051E0,1.0208015E1],"categories":[],"categories_nodes":[],"categories_segments":[],"categories_sizes":[],"default_left":[0,0,0,0,0,0,0,0,0,0,0,0,0,0,0],"id":84,"left_children":[1,3,5,7,9,11,13,-1,-1,-1,-1,-1,-1,-1,-1],"loss_changes":[1.3917353E7,4.6868885E6,8.467844E6,2.840899E6,5.563591E6,1.69331E5,6.243792E6,0E0,0E0,0E0,0E0,0E0,0E0,0E0,0E0],"parents":[2147483647,0,0,1,1,2,2,3,3,4,4,5,5,6,6],"right_children":[2,4,6,8,10,12,14,-1,-1,-1,-1,-1,-1,-1,-1],"split_conditions":[1.819608E2,3E0,1E0,5.485E0,1.80466E2,2.312984E2,2.5E1,7.8777766E0,-1.962402E0,4.184274E0,-6.417313E1,-4.8693004E0,-8.593558E0,2.7852051E0,1.0208015E1],"split_indices":[3,6,6,0,3,3,7,0,0,0,0,0,0,0,0],"split_type":[0,0,0,0,0,0,0,0,0,0,0,0,0,0,0],"sum_hessian":[5.202E3,3.909E3,1.293E3,3.47E3,4.39E2,1.57E2,1.136E3,7.4E1,3.396E3,4.37E2,2E0,1.11E2,4.6E1,5.91E2,5.45E2],"tree_param":{"num_deleted":"0","num_feature":"11","num_nodes":"15","size_leaf_vector":"1"}},{"base_weights":[5.2523613E0,-4.1405396E1,5.268541E1,-1.2487399E2,-2.9634327E1,3.4204323E1,2.3364148E2,-4.595258E0,-1.2053001E1,-2.088762E0,3.915104E0,1.2505854E0,1.7799269E1,2.453978E1,6.4255614E0],"categories":[],"categories_nodes":[],"categories_segments":[],"categories_sizes":[],"default_left":[0,0,0,0,0,0,0,0,0,0,0,0,0,0,0],"id":85,"left_children":[1,3,5,7,9,11,13,-1,-1,-1,-1,-1,-1,-1,-1],"loss_changes":[1.1519257E7,2.5744175E6,8.623556E6,1.2189325E6,3.0186082E6,6.9217115E6,6.398216E6,0E0,0E0,0E0,0E0,0E0,0E0,0E0,0E0],"parents":[2147483647,0,0,1,1,2,2,3,3,4,4,5,5,6,6],"right_children":[2,4,6,8,10,12,14,-1,-1,-1,-1,-1,-1,-1,-1],"split_conditions":[1.41618E2,4.53718E1,3E0,2E0,3E0,2.621278E2,3.0242184E-2,-4.595258E0,-1.2053001E1,-2.088762E0,3.915104E0,1.2505854E0,1.7799269E1,2.453978E1,6.4255614E0],"split_indices":[3,3,6,6,6,3,2,0,0,0,0,0,0,0,0],"split_type":[0,0,0,0,0,0,0,0,0,0,0,0,0,0,0],"sum_hessian":[5.203E3,2.623E3,2.58E3,3.23E2,2.3E3,2.342E3,2.38E2,2.53E2,7E1,2.068E3,2.32E2,2.278E3,6.4E1,6.8E1,1.7E2],"tree_param":{"num_deleted":"0","num_feature":"11","num_nodes":"15","size_leaf_vector":"1"}},{"base_weights":[1.9153787E0,-9.842876E1,1.5244973E1,1.2126949E1,-1.1430384E2,5.482014E0,1.8595767E2,1.492951E0,-1.3329701E0,-5.906179E0,3.954371E0,5.20441E-1,-1.8387741E1,3.6081783E1,6.938681E0],"categories":[],"categories_nodes":[],"categories_segments":[],"categories_sizes":[],"default_left":[0,0,0,0,0,0,0,0,0,0,0,0,0,0,0],"id":86,"left_children":[1,3,5,7,9,11,13,-1,-1,-1,-1,-1,-1,-1,-1],"loss_changes":[7.0035575E6,1.079006E6,7.7022885E6,5.4441484E4,4.060255E5,8.0451855E6,6.218722E6,0E0,0E0,0E0,0E0,0E0,0E0,0E0,0E0],"parents":[2147483647,0,0,1,1,2,2,3,3,4,4,5,5,6,6],"right_children":[2,4,6,8,10,12,14,-1,-1,-1,-1,-1,-1,-1,-1],"split_conditions":[1E0,5.6293E1,2.48175E2,4.95376E1,2.075E1,2.426512E2,2.49575E2,1.492951E0,-1.3329701E0,-5.906179E0,3.954371E0,5.20441E-1,-1.8387741E1,3.6081783E1,6.938681E0],"split_indices":[6,3,3,3,0,3,3,0,0,0,0,0,0,0,0],"split_type":[0,0,0,0,0,0,0,0,0,0,0,0,0,0,0],"sum_hessian":[5.234E3,6.13E2,4.621E3,7.7E1,5.36E2,4.372E3,2.49E2,5.3E1,2.4E1,5.26E2,1E1,4.316E3,5.6E1,1.9E1,2.3E2],"tree_param":{"num_deleted":"0","num_feature":"11","num_nodes":"15","size_leaf_vector":"1"}},{"base_weights":[2.330373E0,-4.7759083E1,3.7178707E1,-3.1146015E1,-1.02983246E2,4.6989838E1,-2.5802628E2,-4.5726047E0,9.351138E-2,-4.780271E0,-4.027067E1,-4.7435203E0,3.3401468E0,4.025915E1,-1.556343E1],"categories":[],"categories_nodes":[],"categories_segments":[],"categories_sizes":[],"default_left":[0,0,0,0,0,0,0,0,0,0,0,0,0,0,0],"id":87,"left_children":[1,3,5,7,9,11,13,-1,-1,-1,-1,-1,-1,-1,-1],"loss_changes":[9.096007E6,1.9582855E6,8.912439E6,3.2754975E6,2.483107E6,8.368143E6,5.8547935E6,0E0,0E0,0E0,0E0,0E0,0E0,0E0,0E0],"parents":[2147483647,0,0,1,1,2,2,3,3,4,4,5,5,6,6],"right_children":[2,4,6,8,10,12,14,-1,-1,-1,-1,-1,-1,-1,-1],"split_conditions":[1.189782E2,1.6E1,2.06E1,6.10536E1,1.181808E2,1E0,1.200098E2,-4.5726047E0,9.351138E-2,-4.780271E0,-4.027067E1,-4.7435203E0,3.3401468E0,4.025915E1,-1.556343E1],"split_indices":[3,0,0,3,3,6,3,0,0,0,0,0,0,0,0],"split_type":[0,0,0,0,0,0,0,0,0,0,0,0,0,0,0],"sum_hessian":[5.209E3,2.137E3,3.072E3,1.644E3,4.93E2,2.974E3,9.8E1,5.81E2,1.063E3,4.89E2,4E0,3.64E2,2.61E3,4E0,9.4E1],"tree_param":{"num_deleted":"0","num_feature":"11","num_nodes":"15","size_leaf_vector":"1"}},{"base_weights":[-7.967755E0,-1.9323658E1,9.7155815E1,4.9200153E0,-7.095987E1,-1.00654E1,1.5413701E2,2.631413E0,-1.1271173E0,4.6952205E0,-4.3644195E0,3.0328968E0,-2.8944248E1,5.651385E1,6.651395E0],"categories":[],"categories_nodes":[],"categories_segments":[],"categories_sizes":[],"default_left":[0,0,0,0,0,0,0,0,0,0,0,0,0,0,0],"id":88,"left_children":[1,3,5,7,9,11,13,-1,-1,-1,-1,-1,-1,-1,-1],"loss_changes":[6.318131E6,5.9791915E6,3.154101E6,4.2605845E6,4.1161725E6,7.2763015E6,6.7936785E6,0E0,0E0,0E0,0E0,0E0,0E0,0E0,0E0],"parents":[2147483647,0,0,1,1,2,2,3,3,4,4,5,5,6,6],"right_children":[2,4,6,8,10,12,14,-1,-1,-1,-1,-1,-1,-1,-1],"split_conditions":[3E0,2E0,3.215298E-2,2.2E1,8.208342E-3,2.9845243E-2,3.322017E-2,2.631413E0,-1.1271173E0,4.6952205E0,-4.3644195E0,3.0328968E0,-2.8944248E1,5.651385E1,6.651395E0],"split_indices":[6,5,2,7,2,2,2,0,0,0,0,0,0,0,0],"split_type":[0,0,0,0,0,0,0,0,0,0,0,0,0,0,0],"sum_hessian":[5.29E3,4.775E3,5.15E2,3.25E3,1.525E3,1.79E2,3.36E2,1.187E3,2.063E3,1.37E2,1.388E3,1.6E2,1.9E1,6E0,3.3E2],"tree_param":{"num_deleted":"0","num_feature":"11","num_nodes":"15","size_leaf_vector":"1"}},{"base_weights":[-6.133394E0,-8.435405E0,4.751402E2,-2.5130436E1,4.0071335E1,1.17396904E2,1.0980842E3,-1.1558574E0,-1.973329E1,1.6670126E1,1.4802371E0,2.577722E1,-3.492321E1,5.7908998E0,6.0319508E1],"categories":[],"categories_nodes":[],"categories_segments":[],"categories_sizes":[],"default_left":[0,0,0,0,0,0,0,0,0,0,0,0,0,0,0],"id":89,"left_children":[1,3,5,7,9,11,13,-1,-1,-1,-1,-1,-1,-1,-1],"loss_changes":[5.818252E6,4.231515E6,5.44244E6,2.8827268E6,4.0980275E6,5.8822505E6,8.17746E5,0E0,0E0,0E0,0E0,0E0,0E0,0E0,0E0],"parents":[2147483647,0,0,1,1,2,2,3,3,4,4,5,5,6,6],"right_children":[2,4,6,8,10,12,14,-1,-1,-1,-1,-1,-1,-1,-1],"split_conditions":[2.643226E2,1.819608E2,2E0,1.81366E2,1.833292E2,7.603638E-2,1E0,-1.1558574E0,-1.973329E1,1.6670126E1,1.4802371E0,2.577722E1,-3.492321E1,5.7908998E0,6.0319508E1],"split_indices":[3,3,5,3,3,2,9,0,0,0,0,0,0,0,0],"split_type":[0,0,0,0,0,0,0,0,0,0,0,0,0,0,0],"sum_hessian":[5.247E3,5.223E3,2.4E1,3.886E3,1.337E3,1.6E1,8E0,3.866E3,2E1,4.5E1,1.292E3,1.1E1,5E0,1E0,7E0],"tree_param":{"num_deleted":"0","num_feature":"11","num_nodes":"15","size_leaf_vector":"1"}},{"base_weights":[2.0126207E0,-6.6227093E0,1.5350787E2,-4.0648317E0,-5.0831567E2,3.951889E2,5.8698456E1,-2.304101E0,9.449126E-1,-3.0666351E1,2.3310488E1,-8.623684E0,3.384596E1,-3.81768E1,6.418182E0],"categories":[],"categories_nodes":[],"categories_segments":[],"categories_sizes":[],"default_left":[0,0,0,0,0,0,0,0,0,0,0,0,0,0,0],"id":90,"left_children":[1,3,5,7,9,11,13,-1,-1,-1,-1,-1,-1,-1,-1],"loss_changes":[6.816798E6,6.3244505E6,6.415535E6,4.734397E6,2.8443445E6,1.275104E7,1.1726076E7,0E0,0E0,0E0,0E0,0E0,0E0,0E0,0E0],"parents":[2147483647,0,0,1,1,2,2,3,3,4,4,5,5,6,6],"right_children":[2,4,6,8,10,12,14,-1,-1,-1,-1,-1,-1,-1,-1],"split_conditions":[2.46446E2,2.446144E2,2.7139014E-2,1.06028E2,1E0,2E0,3.127929E-2,-2.304101E0,9.449126E-1,-3.0666351E1,2.3310488E1,-8.623684E0,3.384596E1,-3.81768E1,6.418182E0],"split_indices":[3,3,2,3,8,4,2,0,0,0,0,0,0,0,0],"split_type":[0,0,0,0,0,0,0,0,0,0,0,0,0,0,0],"sum_hessian":[5.209E3,4.929E3,2.8E2,4.905E3,2.4E1,7.8E1,2.02E2,1.733E3,3.172E3,2.2E1,2E0,2.6E1,5.2E1,1.5E1,1.87E2],"tree_param":{"num_deleted":"0","num_feature":"11","num_nodes":"15",